tree
version=v4
num_class=4
num_tree_per_iteration=4
label_index=0
max_feature_idx=29
objective=multiclass num_class:4
feature_names=latitude longitude location_cluster pin_code has_end_location hour day_of_week month day day_of_year is_weekend is_night is_morning_rush is_evening_rush time_bucket event_type event_cause is_corridor authenticated_flag has_description has_end_time has_been_closed duration_mins resolution_mins corridor veh_type_simple police_station zone junction status
feature_infos=[12.801041100000001:13.267510400000001] [77.308731080000001:77.766471600000003] [0:19] [560001:562162] [0:1] [0:23] [0:6] [1:12] [1:31] [1:365] [0:1] [0:1] [0:1] [0:1] [0:6] [0:1] [0:16] [0:1] [0:1] [0:1] [0:1] [0:1] [0:1440] [0:1440] [0:21] [0:5] [0:53] [0:10] [0:294] [0:2]
tree_sizes=663 6461 560 6484 684 2616 578 475 585 477 579 474 685 6625 582 6676 562 479 582 2619 6656 574 581 477 563 479 479 478 790 476 582 570 6642 478 581 477 6653 477 582 475 6635 578 579 6690 682 578 478 577 6660 6670 581 6654 6676 581 582 678 686 580 580 6680 874 680 580 678 578 681 581 475 580 676 580 475 791 578 681 475 794 578 581 577 788 473 582 479 581 6682 581 477 6605 6639 475 475 6675 475 583 478 790 474 6696 477 770 579 580 579 579 580 685 579 583 6660 585 6672 580 580 583 6670 577 581 582 684 6700 477 581 574 6652 571 6721 476 6708 575 581 576 584 477 680 6650 978 475 580 477 584 674 685 6649 584 580 6552 580 897 579 687 580 582 6673 688 677 583 678 578 6690 584 581 6658 677 6662 576 6694 580 584 6714 583 680 585 581 583 677 6704 581 583 579 582 579 691 6713 581 678 788 675 6739 680 687 577 581 561 687 675 687 559 6646 578 583 581 688 676 583 580 688 579 583 576 688 679 582 578 789 578 682 577 789 675 770 578 795 6721 886 676 899 578 899 6707 896 2417 885 580 796 576 897 6699 6635 578 889 6718 754 575 1424 6693 984 6727 787 579 671 677 997 576 868 6721 993 580 582 6301 790 673 895 579 886 6707 1101 578 6603 580 1090 578 989 581 878 576 779 578 877 578 1205 6507 691 579 6637 577 5913 576 6594 6718 995 577 1206 578 1322 578 6601 576 1104 579 6470 681 1104 578 1289 682 1000 6075 1186 5563 6462 578 1508 678 4904 577 1255 6018 6433 579 6516 681 1104 579 1315 881 1106 6485 1831 879 1211 676 6171 782 1317 779 1423 6039 1107 579 1110 575 879 579 1310 579 1091 680 1110 2437 1204 882 1105 578 1091 784 1095 577 1304 5333 1186 4946 1528 580 1203 475 1119 578 1288 4757 1004 580 1398 684 1538 578 1274 681 1334 575 1382 682 1194 578 1070 581 1721 579 1259 684 1420 576 1273 581 1307 578 1189 4941 1512 677 1180 577 1600 681 3448 580 1399 678 1294 3254 1399 679 1182 673 1406 3990 1368 580 1511 1956 1534 4064 1297 680 1432 785 1294 784 1512 2093 1710 1908 4394 781 1717 761 4234 681 1234 867 4354 884 1060 1831 1626 887 1163 3429 1707 1086 1213 765 1617 1088 1067 3527 1393 886 1605 865 1287 882 4918 780 4367 783 1312 779 6320 968 1177 2175 1409 867 1282 681 1215 758 1624 2854 3847 781 4448 3298 1305 1048 1538 673 1607 764 1429 671 1317 762 1319 672 1524 964 1428 2736 1420 976 1594 886 3938 977 1316 888 4225 888 1622 877 1205 882 4265 879 1525 2618 1434 872 1420 788 1110 761 1417 789 1194 689 1606 879 4548 686 3857 2578 1647 685 6209 789 4119 689 4084 884 1533 891 1421 1560 1531 899 1522 988 1531 997 1536 1076 1719 902 2184 2369 1620 2029 1521 1176 1522 985 1735 882 3867 866 1416 994 4012 779 1834 1468 1715 777 1511 886 4236 856

Tree=0
num_leaves=5
num_cat=0
split_feature=4 17 28 27
split_gain=1278.84 2565.98 0.241346 0.373716
threshold=1.0000000180025095e-35 1.0000000180025095e-35 292.50000000000006 9.5000000000000018
decision_type=2 2 2 2
left_child=1 -1 -3 -4
right_child=-2 2 3 -5
leaf_value=-1.2964126959579814 -1.4161500059815162 -1.416137326332658 -1.4141502098943459 -1.394442965261242
leaf_weight=320.31467454135418 655.83001974225044 320.49159173667431 2.6982633396983138 2.2044481858611107
leaf_count=1734 441 2968 25 19
internal_value=-1.38664 -1.35668 -1.416 -1.40623
internal_weight=1301.54 645.709 325.394 4.90271
internal_count=5187 4746 3012 44
is_linear=0
shrinkage=1


Tree=1
num_leaves=63
num_cat=0
split_feature=17 15 16 16 3 3 5 27 27 3 8 26 0 8 19 27 3 8 5 27 3 8 19 22 3 23 3 0 5 9 16 0 9 26 0 8 26 23 0 3 0 0 0 0 29 9 8 5 8 0 0 28 16 0 5 16 3 9 8 26 8 3
split_gain=1316.86 258.608 109.276 186.238 39.9686 36.2628 35.0028 34.6784 32.6097 25.0869 39.1752 30.0393 24.3421 24.0943 21.6464 21.2851 20.2353 21.6306 20.7864 19.692 21.2754 16.3377 14.7449 14.559 14.1454 24.0095 14.3447 13.9691 13.2098 13.0875 11.5275 11.1022 24.6606 10.8332 10.6822 10.6008 15.5541 9.82561 8.28931 7.49177 7.43392 7.05582 7.04558 10.6744 7.92532 7.88459 7.62051 6.96031 14.9079 6.76198 6.38655 5.8935 5.62454 6.87497 13.2142 12.7338 7.66722 6.61755 5.36818 4.77672 4.41976 3.44465
threshold=1.0000000180025095e-35 1.0000000180025095e-35 13.500000000000002 11.500000000000002 560060.50000000012 560060.50000000012 22.500000000000004 9.5000000000000018 1.5000000000000002 560042.50000000012 18.500000000000004 50.500000000000007 12.98838265 20.500000000000004 1.0000000180025095e-35 4.5000000000000009 560001.50000000012 16.500000000000004 6.5000000000000009 2.5000000000000004 562159.50000000012 24.500000000000004 1.0000000180025095e-35 10.912516666666667 560015.50000000012 20.159980325000003 560005.50000000012 12.945920000000003 19.500000000000004 348.50000000000006 7.5000000000000009 12.975804000000002 55.500000000000007 33.500000000000007 12.945920000000003 7.5000000000000009 20.500000000000004 22.18503191666667 12.916998750000003 560034.50000000012 12.994216050000002 12.972825100000001 12.912059350000002 12.902684250000002 1.0000000180025095e-35 359.50000000000006 24.500000000000004 19.500000000000004 15.500000000000002 13.056517650000002 13.066633050000002 249.50000000000003 8.5000000000000018 13.001329250000001 3.5000000000000004 5.0000000000000009 560020.50000000012 94.500000000000014 4.5000000000000009 46.500000000000007 12.500000000000002 560005.50000000012
decision_type=2 2 2 2 2 2 2 2 2 2 2 2 2 2 2 2 2 2 2 2 2 2 2 2 2 2 2 2 2 2 2 2 2 2 2 2 2 2 2 2 2 2 2 2 2 2 2 2 2 2 2 2 2 2 2 2 2 2 2 2 2 2
left_child=1 23 3 4 6 9 8 19 59 11 15 16 30 47 -12 -11 17 37 29 28 42 38 -17 -1 26 33 -20 -25 -7 -18 35 -19 -33 39 -13 36 -6 -4 -10 -26 -8 -24 43 46 -44 -46 -21 49 -49 -14 -22 -36 53 55 -55 -40 -57 -58 -5 -3 -43 -60
right_child=-2 2 5 58 12 7 40 -9 21 10 14 34 13 -15 -16 22 18 31 24 20 50 -23 41 27 25 -27 -28 -29 -30 -31 -32 32 -34 -35 51 -37 -38 -39 52 -41 -42 60 44 -45 45 -47 -48 48 -50 -51 -52 -53 -54 54 -56 56 57 -59 61 -61 -62 -63
leaf_value=-1.3019300649053256 -1.4162851782633092 -1.4152966693842786 -1.4153544360257577 -1.3367283179174123 -1.3334329473612876 -1.3868467253710741 -1.415639016361846 -1.3258567774333272 -1.4113310889264969 -1.3150210551418249 -1.3334329473612876 -1.3242877536509614 -1.3664500138970261 -1.4154058791938346 -1.4157397631792501 -1.3209322191007533 -1.4160742903223995 -1.3023123852165985 -1.358179882885568 -1.4156990916449155 -1.3534444388458582 -1.3788088947815897 -1.3543853922131068 -1.3678294000591384 -1.3318107937551804 -1.4154295453030143 -1.4158206733951424 -1.3171911822135649 -1.3205333872154505 -1.370371146400194 -1.3617967609616102 -1.3209322191007533 -1.4147872115736135 -1.3886402270307103 -1.3405961952433072 -1.4160697233114008 -1.4149714478184829 -1.3617967609616102 -1.3071637778775598 -1.370371146400194 -1.3610072140807798 -1.4149152531758229 -1.3642906649096733 -1.3517548811467082 -1.4161769339891754 -1.369811776851255 -1.3610072140807798 -1.4148540725577448 -1.3334329473612876 -1.3262125817475769 -1.3909551455174418 -1.3868467253710741 -1.3117314773020083 -1.3239014358546455 -1.3886402270307103 -1.3285944120308701 -1.3868467253710741 -1.3371763784290442 -1.3005320454060729 -1.3721548703414979 -1.369811776851255 -1.3162678838981972
leaf_weight=64.992513656616211 655.47308960556984 5.9140658378601056 6.2836949527263659 10.069649070501326 3.8060821592807752 5.5993322283029539 9.0559133142232877 7.057720646262168 1.108887344598769 20.673613771796227 3.8060821592807761 12.212400212883951 6.3934859633445837 6.65332406759262 10.719244331121443 6.6880915313959131 27.167739942669868 5.5792041867971447 5.4694131761789349 9.9799861013889331 10.199568122625353 8.5343766286969167 7.7420833706855774 6.578300520777705 15.224328637123113 6.8381386250257483 12.567389905452726 22.761469408869743 4.969865009188652 6.9479296356439582 5.839042291045188 6.6880915313959104 3.8811057060956955 5.9689613431692115 4.1757112741470319 26.613296270370483 4.4355493783950806 5.8390422910451889 13.246264010667799 6.9479296356439582 2.8271138668060294 4.2507348209619522 3.0119284242391577 4.9149695038795462 51.008817851543427 3.3815575391054145 2.8271138668060294 4.065920263528823 3.806082159280777 10.678988248109816 6.5234050154685965 5.5993322283029556 10.733883753418921 5.1546795666217786 5.9689613431692123 10.97173333913088 5.5993322283029539 3.9908967167139053 23.665414154529572 3.5663720965385437 3.3815575391054153 54.908225163817406
leaf_count=62 3208 32 34 23 8 24 49 13 6 30 8 22 22 36 58 11 147 5 17 54 30 34 23 23 32 37 68 35 8 25 19 11 21 26 10 144 24 19 15 25 9 23 10 14 276 12 9 22 8 20 29 24 14 9 26 22 24 9 21 13 12 83
internal_value=-1.38633 -1.35594 -1.3638 -1.349 -1.36848 -1.37587 -1.35475 -1.38966 -1.34714 -1.3681 -1.35141 -1.3751 -1.385 -1.36524 -1.39375 -1.33696 -1.38127 -1.35925 -1.3884 -1.39414 -1.39863 -1.3396 -1.35788 -1.31004 -1.37669 -1.36555 -1.39812 -1.32834 -1.35562 -1.40666 -1.40028 -1.33662 -1.35562 -1.35326 -1.34303 -1.40686 -1.37749 -1.38932 -1.33378 -1.34363 -1.40229 -1.37446 -1.40546 -1.38872 -1.41056 -1.41321 -1.40329 -1.35168 -1.37569 -1.3409 -1.3682 -1.36713 -1.33214 -1.33723 -1.35862 -1.33039 -1.3458 -1.36619 -1.31417 -1.39878 -1.39459 -1.31139
internal_weight=1301.54 646.066 551.734 247.608 158.964 304.126 86.6725 109.474 74.7895 194.652 57.2614 137.39 72.2918 31.5978 14.5253 42.7361 115.403 28.2711 87.1318 102.417 91.8473 65.309 22.0625 94.3323 53.0162 34.9794 18.0368 29.3398 10.5692 34.1157 40.694 16.1484 10.5692 28.1412 21.9874 34.8549 8.24163 12.1227 56.7746 22.1723 11.883 15.3744 75.1244 17.7221 57.4023 54.3904 12.8071 24.9445 7.872 17.0725 16.723 9.77504 55.6658 44.9319 11.1236 33.8082 20.562 9.59023 88.6433 9.48044 7.63229 78.5736
internal_count=5187 1979 1859 692 565 1167 262 479 204 688 165 523 303 108 66 99 467 90 377 466 434 159 69 120 205 120 85 58 32 172 195 37 32 83 56 176 32 53 125 57 58 58 375 77 298 288 63 72 30 42 59 34 119 105 35 70 55 33 127 45 35 104
is_linear=0
shrinkage=1


Tree=2
num_leaves=4
num_cat=0
split_feature=4 17 29
split_gain=1313.72 2566 1.85866
threshold=1.0000000180025095e-35 1.0000000180025095e-35 1.5000000000000002
decision_type=2 2 2
left_child=1 -1 -3
right_child=-2 2 -4
leaf_value=-1.4161947965877342 -1.4162062361567636 -1.2963316030824932 -1.3266138374946916
leaf_weight=320.31467454135418 655.83001974225044 322.17264275997877 3.221660502254962
leaf_count=1734 441 2985 27
internal_value=-1.3863 -1.35593 -1.2966
internal_weight=1301.54 645.709 325.394
internal_count=5187 4746 3012
is_linear=0
shrinkage=1


Tree=3
num_leaves=63
num_cat=0
split_feature=17 25 15 3 13 3 24 0 1 0 0 9 9 16 6 0 0 24 16 14 5 8 8 26 26 6 28 23 3 0 24 23 23 23 14 5 26 3 8 27 1 1 0 1 14 8 26 0 5 5 29 26 9 5 16 23 25 26 8 8 9 5
split_gain=1316.09 325.197 67.5983 64.6041 48.4126 43.4705 41.8078 37.51 36.1494 34.9427 30.7346 27.6876 26.6965 24.8627 24.118 21.2753 30.0489 20.0407 20.3771 18.8892 28.7219 17.368 17.6573 17.3078 17.0899 16.5948 16.2813 15.8603 17.7204 16.3681 15.7848 14.48 14.438 14.1859 14.0955 16.9404 16.5509 13.9337 16.6824 13.1712 12.7833 18.15 12.6334 25.5915 12.5773 28.8141 12.9088 14.2512 12.3708 11.7634 11.0741 10.5522 17.223 10.2193 8.88608 26.9659 8.79784 13.7087 14.6948 16.2212 7.67547 17.9822
threshold=1.0000000180025095e-35 4.5000000000000009 1.0000000180025095e-35 560044.00000000012 1.0000000180025095e-35 560053.50000000012 13.500000000000002 13.036018900000002 77.643557900000019 12.929098200000002 12.969857005000001 70.500000000000014 347.50000000000006 3.5000000000000004 5.5000000000000009 12.983732900000001 12.986897050000001 11.500000000000002 5.0000000000000009 1.5000000000000002 19.500000000000004 12.500000000000002 25.500000000000004 51.500000000000007 22.500000000000004 1.5000000000000002 168.50000000000003 4.2155348666666681 560015.50000000012 13.028892800000003 20.500000000000004 76.083386808333344 62.244119425000008 129.72354275833337 2.5000000000000004 16.500000000000004 14.500000000000002 560023.50000000012 28.500000000000004 8.5000000000000018 77.507871150000014 77.507095850000013 12.952046950000002 77.553947500000007 4.5000000000000009 15.500000000000002 31.500000000000004 12.995938800000003 21.500000000000004 8.5000000000000018 1.0000000180025095e-35 13.500000000000002 36.500000000000007 3.5000000000000004 11.500000000000002 24.336379583333336 1.5000000000000002 36.500000000000007 5.5000000000000009 29.500000000000004 93.500000000000014 5.5000000000000009
decision_type=2 2 2 2 2 2 2 2 2 2 2 2 2 2 2 2 2 2 2 2 2 2 2 2 2 2 2 2 2 2 2 2 2 2 2 2 2 2 2 2 2 2 2 2 2 2 2 2 2 2 2 2 2 2 2 2 2 2 2 2 2 2
left_child=-1 3 4 7 -3 12 -6 10 40 51 25 34 13 49 19 -12 -17 44 -19 23 54 -18 27 -13 32 26 -2 29 -29 -23 -14 42 -9 -30 35 36 -7 38 -20 -22 41 -5 -27 -44 46 -46 -15 -48 -28 -4 53 52 -10 -39 55 -21 57 -42 -59 -60 61 -45
right_child=1 2 5 8 6 11 -8 24 9 -11 15 14 30 17 -16 16 21 18 37 20 39 22 -24 -25 -26 31 48 28 33 -31 -32 -33 -34 -35 -36 -37 -38 50 -40 -41 56 -43 43 60 45 -47 47 -49 -50 -51 -52 -53 -54 -55 -56 -57 -58 58 59 -61 -62 -63
leaf_value=-1.4162850639825624 -1.3410540823055701 -1.3059906821760521 -1.4149360295450952 -1.4149360295450952 -1.4154878194564808 -1.3200505561262703 -1.3075230575218644 -1.4149360295450952 -1.324831378352938 -1.4154993534216409 -1.4159531447174032 -1.4155716948271497 -1.4152634780640529 -1.3131708743945913 -1.3071694403716942 -1.3383570650664776 -1.4159018632474523 -1.3161522219025703 -1.4154511181391292 -1.4147888919421401 -1.4154381306671366 -1.4155963070615107 -1.4155988192914493 -1.3200505561262701 -1.3294657270173049 -1.3321168697342185 -1.4157792647107965 -1.3152361667843089 -1.414866240624169 -1.3523889286442043 -1.3200505561262701 -1.4144968207701634 -1.3200505561262701 -1.3200505561262701 -1.4157266655984342 -1.3202285007781156 -1.4154247368701443 -1.3362028510920099 -1.3200505561262701 -1.3362028510920099 -1.4158912993229351 -1.3309641187222614 -1.4153666916089671 -1.4150287971889153 -1.3267820165982558 -1.414866240624169 -1.4137590038526069 -1.3319756403500613 -1.3477126956582712 -1.3513010221487582 -1.3314271096993662 -1.3124884067647158 -1.4144968207701634 -1.4146060050174611 -1.3096089578658761 -1.3240448060841952 -1.41617605164136 -1.3328296009191558 -1.4155565868845907 -1.3246700915031362 -1.3368886230541974 -1.345956681748071
leaf_weight=646.06590794026852 5.3765731900930414 83.952723756432533 4.3172213435173017 4.3172213435173017 7.3392762839794141 2.0407033935189265 5.5824575126171112 4.3172213435173026 4.405198387801649 7.4472068175673476 17.484746441245079 8.2027205526828748 5.7203182801604262 75.819840416312218 9.3400726988911611 13.117641374468802 15.187158726155756 12.244220361113547 7.0154846832156199 3.8854992091655758 6.9075541496276838 8.4954656437039393 8.5265121534466726 2.0407033935189238 28.37393993139267 21.928038150072098 11.548567093908785 8.0548830404877645 4.1013602763414374 6.3479479923844329 2.0407033935189247 3.2379160076379767 2.0407033935189247 2.0407033935189247 10.469261758029459 4.1893373206257811 6.799623616039753 2.4724255278706577 2.0407033935189247 2.4724255278706551 14.786483101546766 4.7289899885654449 6.3679014816880217 4.6410129442811039 16.011812292039398 4.1013602763414374 2.2665412053465834 9.6738410443067533 2.9041476622223863 6.2400174587965012 12.038336038589476 7.8390219733119011 3.2379160076379776 3.4537770748138428 9.5559337660670263 11.066961236298082 50.619420252740383 4.8369205221533766 8.0326969996094686 2.1486339271068564 18.062492430210114 11.61659064888954
leaf_count=1979 20 107 40 40 68 4 7 40 11 69 162 76 53 136 12 47 140 24 65 36 64 78 79 4 84 69 107 15 38 29 4 30 4 4 97 9 63 8 4 8 137 14 59 43 44 38 21 30 12 28 37 13 30 32 14 28 469 15 73 5 63 48
internal_value=-1.3859 -1.35595 -1.33556 -1.37786 -1.31431 -1.34409 -1.36883 -1.36779 -1.3961 -1.36262 -1.37366 -1.36283 -1.3354 -1.33273 -1.35091 -1.3866 -1.37882 -1.32954 -1.34825 -1.3604 -1.34961 -1.38889 -1.37801 -1.3958 -1.3394 -1.36105 -1.38528 -1.3668 -1.34424 -1.38832 -1.38932 -1.35382 -1.38439 -1.38329 -1.38985 -1.36922 -1.39258 -1.36312 -1.39314 -1.39393 -1.40473 -1.37124 -1.35059 -1.36073 -1.3228 -1.34494 -1.31781 -1.34785 -1.40172 -1.37763 -1.34786 -1.33696 -1.36308 -1.38211 -1.33257 -1.34786 -1.40854 -1.39543 -1.37541 -1.39567 -1.35045 -1.36591
internal_weight=1301.54 655.473 339.302 316.171 96.8745 242.427 12.9217 203.772 112.4 22.9293 169.04 76.9708 165.457 157.696 53.4719 83.3564 65.8717 147.138 39.2649 44.1318 33.8884 52.754 37.5669 10.2434 34.7319 85.6832 19.8293 29.0404 14.1969 14.8434 7.76102 65.854 6.35792 6.14206 23.4989 13.0297 8.84033 27.0207 9.05619 9.37998 89.4704 9.04621 62.616 40.688 107.873 20.1132 87.7602 11.9404 14.4527 10.5572 17.9645 15.4821 7.64311 5.9262 24.5084 14.9525 80.4242 29.8047 15.0183 10.1813 34.3201 16.2576
internal_count=5187 3208 1161 2047 182 979 75 1171 876 123 1043 415 564 507 242 592 430 439 170 230 150 383 243 80 128 451 139 164 57 107 57 312 44 42 173 76 67 146 69 72 753 54 282 213 269 82 187 51 119 68 77 54 41 40 78 64 699 230 93 78 154 91
is_linear=0
shrinkage=1


Tree=4
num_leaves=5
num_cat=0
split_feature=4 17 28 27
split_gain=1218.56 2287.57 0.23958 0.366822
threshold=1.0000000180025095e-35 1.0000000180025095e-35 292.50000000000006 9.5000000000000018
decision_type=2 2 2 2
left_child=1 -1 -3 -4
right_child=-2 2 3 -5
leaf_value=0.082798705517988236 -0.029612227414040217 -0.029481668646792906 -0.02750663730878309 -0.007865544360711095
leaf_weight=337.79438021034002 645.06316024810076 312.5938673466444 2.6399214863777152 2.1867438107728958
leaf_count=1734 441 2968 25 19
internal_value=-0.000342662 0.028469 -0.0293464 -0.0195573
internal_weight=1300.28 655.215 317.421 4.82667
internal_count=5187 4746 3012 44
is_linear=0
shrinkage=0.03


Tree=5
num_leaves=24
num_cat=0
split_feature=4 26 3 3 16 1 3 0 2 26 0 11 3 0 7 3 14 26 8 3 1 0 1
split_gain=1219.38 223.151 78.7411 82.5011 68.438 62.8864 55.0755 59.3898 42.64 35.9158 30.2755 30.2718 70.3029 22.8973 19.5691 21.0963 14.7149 12.5045 24.4474 6.01141 12.2715 4.85855 4.19339
threshold=1.0000000180025095e-35 23.500000000000004 560046.50000000012 560099.50000000012 7.5000000000000009 77.602226700000017 560001.50000000012 12.948055135000002 2.5000000000000004 6.5000000000000009 12.969857005000001 1.0000000180025095e-35 560042.50000000012 12.922737150000001 3.5000000000000004 560045.50000000012 4.5000000000000009 41.500000000000007 10.500000000000002 560029.50000000012 77.587259150000008 12.987933600000003 77.57422415000002
decision_type=2 2 2 2 2 2 2 2 2 2 2 2 2 2 2 2 2 2 2 2 2 2 2
left_child=-1 2 6 9 5 14 -2 -8 -6 -4 -11 13 -13 -10 15 -3 19 21 -19 20 22 -15 -9
right_child=1 4 3 -5 8 -7 7 16 11 10 -12 12 -14 17 -16 -17 -18 18 -20 -21 -22 -23 -24
leaf_value=-0.029757678888477714 0.033188288226268139 0.034017175532206692 0.082305572428755192 -0.015545063461111116 0.01368549954402465 -0.0073841176868604868 0.034261809810554246 -0.013360320806457299 0.038665474017241873 0.010888996574910628 0.059260887835437655 0.0014360682446529177 0.06501549892204693 0.064210205204127818 0.018116329668042247 0.074164036305703895 0.0021688610239612308 0.083630108092614758 0.041356167936783254 -0.029582048610704875 0.0036161783883258227 0.083312914926926857 -0.029564320313012364
leaf_weight=635.12110556662083 38.113892436027527 27.56179590523243 21.360962510108948 22.999107956886292 22.066085703670979 36.030568480491638 27.439264893531799 29.592129468917847 25.683722853660583 23.60689651966095 23.344012379646301 25.622260808944702 40.544495940208435 20.376625537872314 23.366029381752014 21.530193388462067 40.06091034412384 21.130073070526123 31.503664612770081 33.773433923721313 23.974379375576973 55.234549716114998 30.400066137313843
leaf_count=4746 25 19 16 14 15 24 18 18 17 15 16 16 28 14 15 16 25 15 21 20 16 40 18
internal_value=-2.52624e-05 0.0283535 0.00999552 0.0334504 0.0448114 0.0249242 0.000382646 -0.00636532 0.0536946 0.0499886 0.0350781 0.0576841 0.0404797 0.0650289 0.0410193 0.0518003 -0.013466 0.0702511 0.0585105 -0.0188085 -0.0144094 0.0782961 -0.0216569
internal_weight=1300.44 665.315 314.665 91.311 350.65 108.489 223.354 185.24 242.161 68.3119 46.9509 220.095 66.1668 153.929 72.458 49.092 157.801 128.245 52.6337 117.74 83.9666 75.6112 59.9922
internal_count=5187 441 201 61 240 74 140 115 166 47 31 151 44 107 50 35 97 90 36 72 52 54 36
is_linear=0
shrinkage=0.03


Tree=6
num_leaves=4
num_cat=0
split_feature=4 17 29
split_gain=1250.85 2284.25 1.51713
threshold=1.0000000180025095e-35 1.0000000180025095e-35 1.5000000000000002
decision_type=2 2 2
left_child=1 -1 -3
right_child=-2 2 -4
leaf_value=-0.029533380125001937 -0.02966888545059591 0.082816865805480963 0.055556192550234959
leaf_weight=312.2634260430932 645.03859849274158 339.90406181663275 3.3558662459254256
leaf_count=1734 441 2985 27
internal_value=-9.70694e-06 0.0291706 0.0825753
internal_weight=1300.56 655.523 343.26
internal_count=5187 4746 3012
is_linear=0
shrinkage=0.03


Tree=7
num_leaves=3
num_cat=0
split_feature=4 17
split_gain=1249.87 2374.66
threshold=1.0000000180025095e-35 1.0000000180025095e-35
decision_type=2 2
left_child=-1 -2
right_child=1 -3
leaf_value=-0.029745808873213615 -0.029743189481425965 0.083591197934443584
leaf_weight=634.55547441542149 320.46377877891064 345.82159088551998
leaf_count=4746 245 196
internal_value=0.000382085 0.0290799
internal_weight=1300.84 666.285
internal_count=5187 441
is_linear=0
shrinkage=0.03


Tree=8
num_leaves=4
num_cat=0
split_feature=4 17 29
split_gain=1148.35 2046.06 2.70206
threshold=1.0000000180025095e-35 1.0000000180025095e-35 1.5000000000000002
decision_type=2 2 2
left_child=1 -1 -3
right_child=-2 2 -4
leaf_value=0.076379641326186618 -0.029319701885885723 -0.029334322439974515 -0.00034238331842671683
leaf_weight=354.71611174941063 631.47929788380861 307.48625884205103 3.1345441862940779
leaf_count=1734 441 2985 27
internal_value=-0.000342298 0.0271563 -0.0290516
internal_weight=1296.82 665.337 310.621
internal_count=5187 4746 3012
is_linear=0
shrinkage=0.03


Tree=9
num_leaves=3
num_cat=0
split_feature=17 4
split_gain=1197.75 2163.6
threshold=1.0000000180025095e-35 1.0000000180025095e-35
decision_type=2 2
left_child=1 -1
right_child=-2 -3
leaf_value=-0.029568495840101645 -0.029519270754549042 0.078916979814798074
leaf_weight=310.97148898988962 633.65761221945286 353.31021113693714
leaf_count=1734 3208 245
internal_value=-1.22585e-05 0.0281301
internal_weight=1297.94 664.282
internal_count=5187 1979
is_linear=0
shrinkage=0.03


Tree=10
num_leaves=4
num_cat=0
split_feature=4 17 29
split_gain=1178.1 2042.81 1.23952
threshold=1.0000000180025095e-35 1.0000000180025095e-35 1.5000000000000002
decision_type=2 2 2
left_child=1 -1 -3
right_child=-2 2 -4
leaf_value=-0.029241218131101483 -0.029377096249541171 0.076402407598274547 0.051772669123142774
leaf_weight=305.5237503349781 631.43009380996227 356.90994690358639 3.4844881147146216
leaf_count=1734 441 2985 27
internal_value=-1.87546e-05 0.0278148 0.076187
internal_weight=1297.35 665.918 360.394
internal_count=5187 4746 3012
is_linear=0
shrinkage=0.03


Tree=11
num_leaves=3
num_cat=0
split_feature=4 17
split_gain=1176.55 2153.03
threshold=1.0000000180025095e-35 1.0000000180025095e-35
decision_type=2 2
left_child=-1 -2
right_child=1 -3
leaf_value=-0.029447887236154668 -0.029532029519044219 0.077671343770268617
leaf_weight=620.8716578707099 315.58964678645134 361.75077912211418
leaf_count=4746 245 196
internal_value=0.000377549 0.0277212
internal_weight=1298.21 677.34
internal_count=5187 441
is_linear=0
shrinkage=0.03


Tree=12
num_leaves=5
num_cat=0
split_feature=4 17 28 27
split_gain=1083.25 1843.33 0.250085 0.367531
threshold=1.0000000180025095e-35 1.0000000180025095e-35 292.50000000000006 9.5000000000000018
decision_type=2 2 2 2
left_child=1 -1 -3 -4
right_child=-2 2 3 -5
leaf_value=0.070965963209807859 -0.02903194641696356 -0.028906007152252194 -0.026888444014790749 -0.007091714414791981
leaf_weight=369.6315047070384 617.56587061285973 299.07127206027508 2.5307929441332808 2.1381034106016159
leaf_count=1734 441 2968 25 19
internal_value=-0.000336278 0.0259772 -0.0287666 -0.0187905
internal_weight=1290.94 673.372 303.74 4.6689
internal_count=5187 4746 3012 44
is_linear=0
shrinkage=0.03


Tree=13
num_leaves=63
num_cat=0
split_feature=17 15 16 16 3 3 5 3 26 19 3 3 26 13 3 5 9 26 9 26 3 23 3 9 16 26 26 9 26 9 9 11 3 23 26 22 16 5 21 28 9 14 23 5 26 6 2 7 9 26 14 25 5 3 7 3 9 9 9 3 5 23
split_gain=1128.84 177.159 81.4231 127.237 29.3871 25.0413 20.8823 18.3674 22.8559 20.9521 18.6209 17.4168 18.4881 18.963 16.4919 18.091 15.415 14.6644 12.3412 17.3148 11.9423 19.7751 12.3338 11.8887 11.7227 11.657 11.6328 10.1592 14.3112 10.0464 10.2401 9.90993 9.38349 8.42043 8.40088 8.29989 7.96744 14.1212 7.8741 7.7174 7.20298 7.00724 6.87435 6.68542 8.83716 6.53779 14.768 8.10739 6.12302 6.1083 6.0078 6.16994 5.87574 5.69849 5.3396 6.70356 8.91389 4.87857 4.69545 4.29205 3.93339 5.82272
threshold=1.0000000180025095e-35 1.0000000180025095e-35 13.500000000000002 7.5000000000000009 560060.50000000012 560065.50000000012 22.500000000000004 560042.50000000012 50.500000000000007 1.0000000180025095e-35 560050.50000000012 560073.50000000012 21.500000000000004 1.0000000180025095e-35 560001.50000000012 6.5000000000000009 319.50000000000006 44.500000000000007 68.500000000000014 26.500000000000004 560015.50000000012 20.159980325000003 560005.50000000012 348.50000000000006 11.500000000000002 18.500000000000004 30.500000000000004 57.500000000000007 19.500000000000004 47.500000000000007 21.500000000000004 1.0000000180025095e-35 560095.50000000012 86.618222058333345 33.500000000000007 10.912516666666667 5.0000000000000009 7.5000000000000009 1.0000000180025095e-35 273.50000000000006 322.50000000000006 2.5000000000000004 56.180120116666679 6.5000000000000009 34.500000000000007 1.5000000000000002 9.5000000000000018 7.5000000000000009 89.500000000000014 11.500000000000002 4.5000000000000009 2.5000000000000004 5.5000000000000009 560034.50000000012 1.5000000000000002 560028.00000000012 342.50000000000006 334.50000000000006 80.500000000000014 560035.50000000012 6.5000000000000009 6.6568301166666677
decision_type=2 2 2 2 2 2 2 2 2 2 2 2 2 2 2 2 2 2 2 2 2 2 2 2 2 2 2 2 2 2 2 2 2 2 2 2 2 2 2 2 2 2 2 2 2 2 2 2 2 2 2 2 2 2 2 2 2 2 2 2 2 2
left_child=1 35 3 5 7 6 16 8 14 -9 45 43 33 38 27 23 17 36 19 49 22 34 -17 -16 41 -20 -18 -4 31 30 -21 -29 -15 -13 53 -1 -3 -38 39 -14 -8 -5 -19 44 52 -11 -47 -48 -41 -7 51 -10 57 -22 -37 -56 -57 -6 -43 -39 61 -12
right_child=-2 2 4 24 11 18 40 9 50 10 60 12 13 32 15 20 26 42 25 29 21 -23 -24 -25 -26 -27 -28 28 -30 -31 -32 -33 -34 -35 -36 54 37 59 -40 48 -42 58 -44 -45 -46 46 47 -49 -50 -51 -52 -53 -54 -55 55 56 -58 -59 -60 -61 -62 -63
leaf_value=0.068256059891695697 -0.029228605186433276 0.058196071650608958 0.044537244362733749 0.054098118080879692 -0.027643834394230318 0.019285468992440269 -0.028466880710330336 0.057578922695917183 -0.00061366169592651058 0.050506289610880176 0.020773440029142023 -0.028760679716247614 0.045165655992078682 0.057113299183463119 -0.028880851445257753 0.024462538883419236 -0.028475099484423991 -0.027917629495179841 0.01583373859667327 0.03897451136269247 0.047281325668326074 -0.028207726208440576 -0.028664450367391139 0.014680913699593628 0.059112111798911654 -0.028878461697663064 0.024517175568763601 0 -0.028223271523937048 0.057962123358191071 -0.027636383311445918 0.058170795295654859 0.016370214780094185 0.027910151489302409 -0.0020448470215309491 0.063970746857019423 0.045238068332631456 -0.027739533810583986 -0.028376396194989589 0.011675583627992526 0.026435872724783153 0.034458769293468437 0.023085304850669362 -0.028918340308894331 -0.028461250684839748 0.061780566621732057 -0.028057949447858974 0.023951654263482475 -0.028076206778040947 -0.028553041106347724 0.053346103927662904 0.041639093729653791 0.038102417466388788 0.014197212671763666 0.061689742750892451 -0.0023480865903725058 0.049193998410232073 0.022948281494652424 0 0.019699752861928262 -0.028204777873118678 -0.027637833349396068
leaf_weight=73.76249885559082 619.59551464766264 19.637019336223602 12.672573000192644 11.21401819586754 3.8186760842800158 3.1225089430809048 8.5062001347541791 17.92705899477005 5.5896776616573334 11.681557983160021 6.185862645506857 14.591624096035959 4.1156720668077531 10.83206807076931 25.435241907835007 5.7315699607133892 6.3536226600408545 3.8278981745243055 6.8746047019958523 4.4881418794393522 16.356409311294563 6.4043204784393302 11.799055665731428 7.0683356672525397 99.093014493584633 20.500729143619537 8.704973489046095 5.3239456415176409 5.9261556267738333 7.1137657910585395 3.6613630205392838 5.284366101026535 10.216271817684174 2.6761963963508597 5.899543195962905 13.389561384916307 18.89220812916756 3.5323206037282935 6.6468488574028006 11.403656095266344 2.727757826447486 9.7196882069110853 5.890352189540863 22.78042770922184 8.1737496405839902 5.0802777856588337 4.8941286355257034 5.7656745612621307 4.9022590816020957 8.8815501034259778 11.29973292350769 6.5369542390108109 4.5791360586881638 7.1185655742883673 6.8084499835968044 5.8696539402008039 5.8807708024978638 2.9143336415290833 5.412192463874816 3.1081689447164536 5.4324906170368186 3.3503987342119217
leaf_count=62 3208 27 26 18 22 10 49 24 24 20 20 84 8 16 147 17 36 22 24 10 32 37 68 25 127 118 27 23 34 10 21 7 35 8 26 15 39 20 38 42 8 24 18 131 47 6 28 17 28 51 18 14 11 25 8 25 10 9 23 10 31 19
internal_value=-6.04342e-06 0.026878 0.020223 0.0325296 0.00971282 0.0123668 0.0229296 0.0165496 0.010484 0.030382 0.0187013 -0.00288632 0.00678035 0.016365 0.00493854 -0.00166264 0.0290373 0.0364054 -0.00328429 0.0109142 0.00905082 0.0190035 -0.0110844 -0.0192998 0.0543105 -0.0175242 0.00192007 0.0243753 0.00856728 0.0320892 0.00871205 0.0294715 0.0376505 -0.0196949 0.0294592 0.062535 0.0435883 0.0320533 -0.000153863 0.00897938 -0.0147554 0.0359818 0.0026106 -0.0178919 -0.0047661 0.033372 0.0202277 0 -0.000190941 -0.0158049 0.0374472 0.0220719 0.0121917 0.0374789 0.0490607 0.0378577 0.0233916 -0.005291 0.0220921 -0.00512704 -0.00801826 0.00334336
internal_weight=1292.98 673.388 567.677 261.262 306.415 135.823 81.1805 198.764 138.446 60.3174 42.3904 107.651 65.3846 48.1168 115.02 85.813 69.9466 54.888 54.6427 27.2673 53.3095 35.7788 17.5306 32.5036 125.439 27.3753 15.0586 29.207 16.5345 15.2633 8.1495 10.6083 21.0483 17.2678 29.3745 105.711 45.1697 25.5327 27.0684 20.4216 11.234 26.3459 9.71825 42.2663 19.4859 27.4216 15.7401 10.6598 16.3059 12.0041 23.4264 12.1266 11.3121 23.475 31.9484 18.5589 11.7504 6.73301 15.1319 6.64049 14.9688 9.53626
internal_count=5187 1979 1859 692 1167 500 256 688 523 165 141 479 259 167 467 377 199 136 244 102 205 120 85 172 192 142 63 90 64 41 31 30 51 92 83 120 96 69 116 78 57 65 40 220 89 71 51 45 70 61 56 38 42 57 58 43 35 31 47 30 70 39
is_linear=0
shrinkage=0.03


Tree=14
num_leaves=4
num_cat=0
split_feature=4 17 29
split_gain=1110.73 1840.18 0.980489
threshold=1.0000000180025095e-35 1.0000000180025095e-35 1.5000000000000002
decision_type=2 2 2
left_child=1 -1 -3
right_child=-2 2 -4
leaf_value=-0.028959311925987531 -0.029090207273571953 0.070989137535765204 0.048744778336211304
leaf_weight=298.71040164679289 617.49195390939713 371.90658282488585 3.5905371457338324
leaf_count=1734 441 2985 27
internal_value=-2.15983e-05 0.0265976 0.0707975
internal_weight=1291.7 674.208 375.497
internal_count=5187 4746 3012
is_linear=0
shrinkage=0.03


Tree=15
num_leaves=63
num_cat=0
split_feature=17 16 3 16 16 1 5 3 2 6 1 16 16 2 26 5 1 11 1 23 26 26 2 6 5 9 9 26 6 23 1 1 24 6 1 2 23 5 9 1 1 1 5 2 23 14 1 5 6 1 5 26 26 1 24 16 16 9 7 26 28 24
split_gain=1108.9 165.02 78.0514 45.1604 42.7233 34.8957 29.301 24.7026 23.9489 23.4028 22.1097 21.2539 31.4346 22.9021 20.0995 19.4048 18.9598 18.2922 17.9055 17.1345 17.3094 14.4419 13.8932 15.1979 13.5343 13.0031 12.5161 12.3568 12.0997 11.6273 11.6136 14.3648 13.2104 12.471 11.4311 11.2895 10.1485 10.1592 9.87422 9.43562 15.6143 10.5317 13.9186 20.3034 9.35938 12.1427 9.02765 8.59663 8.54934 10.4637 8.10804 9.20955 7.6606 9.59752 6.60248 6.37474 5.84089 6.90843 7.13706 6.5011 5.82797 14.2724
threshold=1.0000000180025095e-35 13.500000000000002 560053.50000000012 14.500000000000002 3.5000000000000004 77.643557900000019 18.500000000000004 560052.00000000012 10.500000000000002 1.0000000180025095e-35 77.585406300000002 5.0000000000000009 7.5000000000000009 4.5000000000000009 33.500000000000007 20.500000000000004 77.713895550000018 1.0000000180025095e-35 77.651204950000007 24.336379583333336 22.500000000000004 42.500000000000007 4.5000000000000009 1.0000000180025095e-35 18.500000000000004 2.5000000000000004 81.500000000000014 22.500000000000004 2.5000000000000004 282.81597971666673 77.507871150000014 77.507095850000013 1.5000000000000002 1.5000000000000002 77.680826450000012 6.5000000000000009 2.536937691666667 16.500000000000004 320.50000000000006 77.538000400000016 77.553947500000007 77.587488350000015 17.500000000000004 11.500000000000002 38.939653783333334 2.5000000000000004 77.539207250000018 1.0000000180025095e-35 3.5000000000000004 77.517957750000008 20.500000000000004 16.500000000000004 52.500000000000007 77.561040820000017 16.500000000000004 5.0000000000000009 9.5000000000000018 63.500000000000007 3.5000000000000004 5.5000000000000009 270.50000000000006 17.500000000000004
decision_type=2 2 2 2 2 2 2 2 2 2 2 2 2 2 2 2 2 2 2 2 2 2 2 2 2 2 2 2 2 2 2 2 2 2 2 2 2 2 2 2 2 2 2 2 2 2 2 2 2 2 2 2 2 2 2 2 2 2 2 2 2 2
left_child=-1 4 3 9 8 25 11 15 -2 16 -5 -6 13 -13 27 35 -3 -10 -7 20 -15 -16 23 -17 -20 -4 54 39 -23 -9 31 -27 33 -32 -26 -8 -29 -38 46 48 -41 -42 43 47 45 -44 -30 -43 49 -11 -47 -52 -34 -54 -12 -24 57 -57 -59 -60 -48 -62
right_child=1 2 5 10 6 18 7 29 17 14 26 12 -14 19 21 22 -18 -19 24 -21 -22 28 55 -25 34 30 -28 36 38 -31 32 -33 52 -35 -36 -37 37 -39 -40 40 41 42 44 -45 -46 50 60 -49 -50 -51 51 -53 53 -55 -56 56 -58 58 59 -61 61 -63
leaf_value=-0.029153288102350284 -0.02867868605375553 -0.028843748845579512 0.051867969153278078 0.062866511003017725 0.064298068635940328 0.056836983095517907 0.026363240303241667 -0.028468384391391335 0.04550819957683741 0.055374861143057993 0.010490215997349044 -0.028342382240050833 0.058765075489961967 0.034752974157133132 -0.028646986563384901 0.048180759662602074 0.068220139172589372 -0.027694622673135341 -0.028355952703769984 0.046779031150484762 -0.028327438218644682 -0.028089103967015583 0.066972766319154012 -0.027971512333147493 -0.027038289850062711 -0.027698575356065028 -0.027882433048693981 0.045445895258549134 -0.026686773319929732 0.023446415005241493 0.039234026655763282 0.046823755151082655 -0.029047898821890055 -0.027753654880584393 0.04336376286945165 -0.02821756865181976 -0.027838353794488822 0.034007808297261903 -0.027406886076795832 -0.028282322228986453 0.032133914038014265 0.019424479572460771 0.05296457964431267 0.046856246679713082 0.047496352680842444 -0.028267826810284228 0.05775257278819354 -0.02887470907543787 0.053388384726234882 -0.027631872003207474 -0.02715377025750685 0.038155109131630394 -0.027184985583741959 0.052472380316770408 0.062484204889380557 -0.026020464905036771 0.059639511953963387 0.057187211955170791 0.039820934173187682 -0.026922178549033077 0.043765964259034493 -0.027521536328847154
leaf_weight=607.24473488330841 10.409620985388758 14.966642461717129 2.360373690724372 32.300463482737541 82.820978820323944 9.1441723331809062 10.663516931235788 7.8397225216031057 13.249042861163618 2.2591793611645725 4.8886515498161298 5.8583357632160178 60.991584338247776 9.2245620638132078 10.970833912491797 5.0482574105262739 1.9485628604888923 3.8624147251248351 6.6250767186284092 31.336771056056023 6.6165687888860694 5.4725224077701595 20.576606012880802 4.2164061516523361 2.6438395828008643 4.0459762066602689 3.9122280925512305 34.597361959517002 2.241006098687655 7.4742582365870476 5.7308524549007398 5.1492063403129578 64.23993631452322 4.2446790486574173 8.1315809562802297 4.8594805672764769 3.7166858166456205 6.1999405696988106 3.1592755094170561 6.7851521447300902 32.366677068173885 3.9972014874219957 4.7478086054325148 5.1457764804363242 10.29340013861656 6.0183216184377679 6.7805363312363633 16.419585078954697 11.967299230396746 3.1179171055555344 2.752934478223322 5.8300318866968155 2.9345083460211745 2.3469222784042358 4.2412000298500061 1.6533316969871545 11.097967982292174 6.8169620335102064 2.7842867821455002 2.2757175713777542 8.1020919159054738 3.5193053930997857
leaf_count=1979 102 146 5 41 94 16 50 77 39 4 29 57 103 35 108 13 1 38 65 87 65 54 18 41 26 40 38 101 22 37 20 14 633 42 25 47 36 24 31 67 134 21 10 14 28 59 12 161 26 30 27 21 29 5 5 16 17 12 9 22 25 34
internal_value=0.000367934 0.0265051 0.0131404 0.0223518 0.0427266 -0.00710134 0.0462076 0.0313692 0.00689152 0.0165379 0.0495488 0.0526036 0.0440344 0.026959 0.019461 0.0389139 -0.0171508 0.0287456 0.023062 0.033935 0.00820476 0.000477341 0.047348 0.0132744 0.00491801 -0.0159435 0.0161099 0.0243291 0.0115543 -0.00294809 -0.0178383 0.0137652 -0.0215442 0.0104399 0.0257244 0.00901342 0.0377651 0.0104823 0.0208739 0.018919 0.0150989 0.0185227 0.0104446 -0.00567421 0.024418 0.0118054 0.0285041 -0.0192239 0.0393236 0.00706983 -0.0016433 0.0167907 -0.026185 0.00797237 0.0353839 0.0542203 0.0432168 0.0291875 0.0372763 0.00928207 0.0354953 0.0218714
internal_weight=1293.24 685.992 376.316 258.719 309.676 117.597 282.155 85.3065 27.5211 213.376 45.3425 196.849 114.028 53.0362 196.461 69.9925 16.9152 17.1115 26.5447 47.1779 15.8411 40.2456 54.4695 9.26466 17.4005 91.0525 13.0421 156.215 29.2747 15.314 88.6921 9.19518 79.4969 9.97553 10.7754 15.523 44.514 9.91663 23.8022 111.701 94.3569 87.5717 55.2051 25.5626 29.6425 19.3491 20.6429 20.4168 17.3444 5.3771 14.6013 8.58297 69.5214 5.28143 9.12985 45.2049 24.6283 13.5303 11.877 5.06 18.4019 11.6214
internal_count=5187 3208 2229 1309 979 920 800 359 179 1196 113 441 347 244 1049 245 147 77 132 187 100 286 148 54 116 788 72 763 178 114 783 54 729 62 51 97 161 60 124 602 542 475 341 196 145 117 93 182 60 34 107 48 667 34 34 94 76 59 43 31 71 59
is_linear=0
shrinkage=0.03


Tree=16
num_leaves=4
num_cat=0
split_feature=4 17 29
split_gain=1035.83 1677.52 2.67263
threshold=1.0000000180025095e-35 1.0000000180025095e-35 1.5000000000000002
decision_type=2 2 2
left_child=1 -1 -3
right_child=-2 2 -4
leaf_value=0.066733658978247123 -0.02880914634677444 -0.028742821527259849 0
leaf_weight=381.50561439990997 606.31078783422709 292.60869956761599 3.086854711174964
leaf_count=1734 441 2985 27
internal_value=-0.000326882 0.0251699 -0.0284499
internal_weight=1283.51 677.201 295.696
internal_count=5187 4746 3012
is_linear=0
shrinkage=0.03


Tree=17
num_leaves=3
num_cat=0
split_feature=17 4
split_gain=1065.44 1806.83
threshold=1.0000000180025095e-35 1.0000000180025095e-35
decision_type=2 2
left_child=1 -1
right_child=-2 -3
leaf_value=-0.029170622844407832 -0.028957055086850633 0.069167730300137648
leaf_weight=301.13605863600969 605.63003131002188 380.48864831030369
leaf_count=1734 3208 245
internal_value=-2.29024e-06 0.0257204
internal_weight=1287.25 681.625
internal_count=5187 1979
is_linear=0
shrinkage=0.03


Tree=18
num_leaves=4
num_cat=0
split_feature=4 17 29
split_gain=1061.39 1672.52 0.891357
threshold=1.0000000180025095e-35 1.0000000180025095e-35 1.5000000000000002
decision_type=2 2 2
left_child=1 -1 -3
right_child=-2 2 -4
leaf_value=-0.028641481615423139 -0.028868086228146718 0.066719576498561972 0.04580432892123619
leaf_weight=290.60889206826687 606.21203979849815 383.95041859149933 3.6952450051903716
leaf_count=1734 441 2985 27
internal_value=-2.24836e-05 0.0257552 0.0665398
internal_weight=1284.47 678.255 387.646
internal_count=5187 4746 3012
is_linear=0
shrinkage=0.03


Tree=19
num_leaves=24
num_cat=0
split_feature=4 26 16 3 3 1 11 3 3 9 14 1 9 5 5 1 3 3 1 14 16 1 1
split_gain=1057.2 164.318 52.726 52.3116 67.0509 40.8862 36.8632 53.2017 34.5605 33.9443 30.7274 26.9549 20.4132 17.988 17.8692 26.1928 17.633 9.17221 8.42295 8.21867 8.7803 4.93855 6.64327
threshold=1.0000000180025095e-35 23.500000000000004 7.5000000000000009 560046.50000000012 560101.00000000012 77.602226700000017 1.0000000180025095e-35 560042.50000000012 560001.50000000012 332.50000000000006 5.5000000000000009 77.605962350000013 96.500000000000014 7.5000000000000009 19.500000000000004 77.588707950000014 560045.50000000012 560072.50000000012 77.568003800000014 1.5000000000000002 13.500000000000002 77.604956750000014 77.566383555000016
decision_type=2 2 2 2 2 2 2 2 2 2 2 2 2 2 2 2 2 2 2 2 2 2 2
left_child=-1 3 5 8 9 12 13 -8 -2 17 19 -9 16 -4 15 18 -3 -5 -15 20 -10 22 -21
right_child=1 2 6 4 -6 -7 7 11 10 -11 -12 -13 -14 14 -16 -17 -18 -19 -20 21 -22 -23 -24
leaf_value=-0.02894523242231507 0.021369698543799456 0.01779265009329406 -0.023576184181083683 0.030725288083396696 0.062364347590950969 0.051625614571718131 0.048848910042344339 0.018873054654196017 0.033144611712380825 -0.028650969480323224 0.022036226155067812 -0.028711844803263428 0.036934331092137535 0.0051241929177018846 -0.017680549567416163 0.0254943431972263 -0.018783976963047941 0.0046681661914220948 -0.020344964115712991 0.064730907753563285 0.057183209255852657 0.068004086377035838 0.044654333877413598
leaf_weight=595.48296990990639 39.011099457740784 29.361260905861855 37.119846224784851 26.242900252342224 25.689510822296143 41.268036246299744 32.756489098072052 24.613474607467651 25.18818998336792 18.791031412780285 26.808587789535522 18.799095869064331 23.770933747291565 23.005500316619873 35.289682865142822 39.734206959605217 19.720976084470749 23.229677081108093 23.294174194335938 33.532459497451782 34.145405173301697 58.71293830871582 31.9189373254776
leaf_count=4746 25 20 29 16 13 24 19 16 16 16 17 15 14 16 27 26 16 16 18 17 18 29 18
internal_value=0.000355254 0.0255738 0.0110533 0.0403091 0.0211412 0.0277723 0.00289961 0.0200448 0.0475089 0.00551541 0.0523309 -0.00168248 0.0141671 -0.00533116 0.00024115 0.00763916 0.00302705 0.0185849 -0.00764136 0.0567261 0.0471018 0.0612594 0.0550689
internal_weight=1287.49 692.004 348.734 343.271 93.9531 114.121 234.612 76.1691 249.318 68.2636 210.307 43.4126 72.8532 158.443 121.324 86.0339 49.0822 49.4726 46.2997 183.498 59.3336 124.164 65.4514
internal_count=5187 441 240 201 61 74 166 50 140 48 115 31 50 116 87 60 36 32 34 98 34 64 35
is_linear=0
shrinkage=0.03


Tree=20
num_leaves=63
num_cat=0
split_feature=17 15 8 16 16 3 7 1 22 20 3 3 8 23 1 7 16 8 28 6 7 23 11 7 26 14 3 3 25 6 1 0 3 28 14 7 0 8 3 8 0 3 25 1 6 1 14 25 16 14 25 1 3 11 28 25 14 1 14 0 28 16
split_gain=976.854 160.747 40.7022 51.0736 52.2805 16.2564 24.7043 14.8122 14.8086 12.295 10.4184 13.7536 14.2331 10.2353 21.3765 13.5932 15.6009 10.2396 12.7389 10.2182 9.41767 9.31187 8.21369 7.8029 7.46729 8.22281 7.35232 7.34114 7.29778 7.27506 6.58915 6.45063 7.87494 6.31251 6.13682 8.7368 6.29741 6.89577 8.57097 5.90581 5.65101 5.24583 6.573 7.94106 5.22534 7.31841 7.86113 5.07887 10.3349 4.96315 4.90995 4.78219 4.69923 4.46789 3.85857 3.89105 5.93928 3.60267 5.183 3.5541 2.73612 2.68139
threshold=1.0000000180025095e-35 1.0000000180025095e-35 9.5000000000000018 13.500000000000002 8.5000000000000018 560005.50000000012 7.5000000000000009 77.473247500000014 10.912516666666667 1.0000000180025095e-35 560060.50000000012 560010.50000000012 5.5000000000000009 112.62235296666668 77.570448150000018 2.5000000000000004 11.500000000000002 28.500000000000004 52.500000000000007 3.5000000000000004 7.5000000000000009 22.18503191666667 1.0000000180025095e-35 1.5000000000000002 18.500000000000004 1.5000000000000002 560026.50000000012 560077.50000000012 1.5000000000000002 2.5000000000000004 77.585589350000006 12.974167585000002 560066.50000000012 43.500000000000007 3.5000000000000004 1.5000000000000002 13.061735500000003 19.500000000000004 560034.50000000012 4.5000000000000009 12.938489700000002 560044.00000000012 1.5000000000000002 77.713895550000018 3.5000000000000004 77.577845650000015 1.5000000000000002 4.5000000000000009 6.5000000000000009 1.5000000000000002 1.5000000000000002 77.628196000000017 560057.50000000012 1.0000000180025095e-35 245.50000000000003 4.5000000000000009 1.5000000000000002 77.499562400000016 2.5000000000000004 12.971102200000002 175.50000000000003 10.500000000000002
decision_type=2 2 2 2 2 2 2 2 2 2 2 2 2 2 2 2 2 2 2 2 2 2 2 2 2 2 2 2 2 2 2 2 2 2 2 2 2 2 2 2 2 2 2 2 2 2 2 2 2 2 2 2 2 2 2 2 2 2 2 2 2 2
left_child=1 8 3 4 7 6 54 -3 -1 13 11 21 28 17 -15 40 -17 18 33 -9 59 -5 24 -12 -20 47 -21 -28 -13 -23 -14 -24 41 -7 -27 -36 37 38 -37 -6 -16 61 -43 -44 51 46 -46 60 -49 -32 -39 -19 -41 -47 -4 56 -56 58 -25 -10 -26 -33
right_child=-2 2 5 10 39 9 -8 19 20 -11 23 12 30 14 15 16 -18 44 22 26 -22 29 31 57 25 34 27 -29 -30 -31 49 32 -34 -35 35 36 -38 50 -40 52 -42 42 43 -45 45 53 -48 48 -50 -51 -52 -53 -54 -55 55 -57 -58 -59 -60 -61 -62 -63
leaf_value=-0.02276053590786567 -0.02846092519854283 -0.010863920720428031 -0.010215456945610043 0.062073247707863037 0.0069185744030547912 0.033690682694921432 0.061816552674678796 0.061317529758762652 0.0083479126242964417 -0.010016016617627925 0.019880172063410726 0.021921941049353875 0.025141259905743892 0.062049716592457296 0.031921998834590161 0.053852893759673989 0.0069869945658175905 0.06128184606243206 0.056533967149479038 0.0028383555042087861 0.032599398303141514 -0.00083306208920772104 0.060069524596725307 0.01404959198379426 0.030595019416037737 0.0034269249026115975 0.061581369695812647 0.018367713714824721 0.061558328036330871 0.045192539668410962 -0.021475773129740843 0.029570985967003898 0.062036533982090213 -0.0057676923727691936 0.06143716822494566 0.020232952207109276 0.001538306549000696 0.003363127955260239 0.062026226331488209 -0.019972109667595682 -0.0072283106474142593 0.0017704323862380463 0.061601807543290796 0.0061859300675179783 -0.012330798463326681 0.022503858448426128 0.029683720076117779 0.060893143169641006 0.00095271206300807454 0.0084108653302784869 0.035192818532185761 0.02312036250174394 -0.00047795838553451198 0.060658221961214717 0.00094114594156424877 0.00051609091663398375 0.043809952435061542 0.061794499473093206 0.060704694102798371 -0.016688144743243725 0.062051323745921372 0.054120189527436309
leaf_weight=57.970268487930298 588.3310242369771 6.0330220609903327 9.1840760856866819 13.591902837157251 13.940389662981032 7.8736677020788175 9.0626743435859662 12.571641400456427 8.3026140332222038 4.617998704314231 7.9966666400432578 10.968460410833361 9.126860126852991 12.464589715003966 3.9867094010114696 13.959448769688608 12.085638821125029 6.577799513936041 20.07006411254406 7.7620940059423473 7.3755986988544455 5.2993638515472394 47.737002983689308 4.7377992570400256 3.7372963428497341 7.634619027376174 7.0206332802772504 7.8016101866960526 7.2503077685832968 6.9069058299064636 9.2539888471364993 7.0117767006158838 16.567037805914879 6.4767350703477859 8.1719991564750654 7.9529295563697842 7.4167899191379538 9.565784156322481 11.09978801012039 41.426108106970787 17.536820083856583 7.3782721012830761 5.876863554120062 4.0631272345781326 9.0281783938407951 8.4106386452913267 6.9876533746719351 4.9885305166244525 5.4882436394691467 10.491019442677496 8.3318496942520124 6.2653948813676834 15.646068319678305 4.5368847995996466 5.4873575419187546 12.696988135576248 6.4741583466529846 20.019102722406387 4.3053572922945023 12.535996720194815 17.704370647668839 14.88955794274807
leaf_count=61 3172 9 14 60 31 26 40 56 19 7 22 31 27 55 13 57 27 29 84 17 24 10 206 12 12 16 31 21 32 26 10 22 73 11 36 22 15 20 49 48 29 15 26 9 13 24 22 22 11 24 28 19 30 20 11 26 24 88 19 16 78 61
internal_value=-8.20342e-05 0.0241913 0.0296823 0.01944 0.00516077 0.0356649 0.0180778 0.0320258 -0.0140899 0.0378925 0.0339667 0.0272144 0.0174036 0.038571 0.0271212 0.0177948 0.0323305 0.0410776 0.0435904 0.039481 0.00363679 0.0448705 0.0454202 0.0470575 0.0395841 0.0358003 0.0269767 0.0393126 0.0381093 0.0251223 0.00414783 0.05167 0.0443341 0.0157577 0.0290531 0.0327064 0.0272207 0.0322767 0.0449344 -0.0104025 0 0.0366412 0.023721 0.0395357 0.0271083 0.0197368 0.00588429 0.0482962 0.030083 -0.00548271 0.0184606 0.0432195 -0.0146905 0.0364657 0.00612904 0.0123544 0.0245634 0.0543389 0.0370107 -0.00657766 0.0568752 0.0465672
internal_weight=1276.06 687.733 601.549 222.149 112.202 379.399 42.9053 41.189 86.1845 336.494 109.948 72.8888 47.0906 331.876 60.0332 47.5686 26.0451 271.843 230.036 35.156 28.2142 25.7982 215.686 37.0589 112.162 92.0922 22.5843 14.8222 18.2188 12.2063 28.8719 103.524 55.7866 14.3504 60.1738 52.5391 44.3671 36.9504 19.0527 71.0126 21.5235 39.2196 17.3183 9.93999 41.8065 28.9634 16.0158 31.9184 10.4768 19.745 17.8976 12.8432 57.0722 12.9475 33.8426 24.6585 11.9615 29.0623 9.04316 20.8386 21.4417 21.9013
internal_count=5168 1996 1876 604 243 1272 115 134 120 1157 361 220 124 1150 181 126 84 969 842 125 59 96 805 141 393 309 69 52 63 36 61 412 206 37 186 170 134 119 71 109 42 133 50 35 127 79 35 123 33 34 48 48 78 44 75 61 35 119 31 35 90 83
is_linear=0
shrinkage=0.03


Tree=21
num_leaves=4
num_cat=0
split_feature=4 24 24
split_gain=953.538 843.702 870.225
threshold=1.0000000180025095e-35 10.500000000000002 11.500000000000002
decision_type=2 2 2
left_child=-1 -2 -3
right_child=1 2 -4
leaf_value=-0.028703970942732152 -0.029004256595823907 0.065768593220120769 -0.028923148679087303
leaf_weight=582.43860524892807 197.9924154728651 383.6038551479578 112.97888818383217
leaf_count=4728 126 240 74
internal_value=-0.000395133 0.0233397 0.0442175
internal_weight=1277.01 694.575 496.583
internal_count=5168 440 314
is_linear=0
shrinkage=0.03


Tree=22
num_leaves=4
num_cat=0
split_feature=4 17 29
split_gain=984.266 1522.42 0.668511
threshold=1.0000000180025095e-35 1.0000000180025095e-35 1.5000000000000002
decision_type=2 2 2
left_child=1 -1 -3
right_child=-2 2 -4
leaf_value=-0.02828911153257883 -0.028612514838398686 0.062706879204861052 0.044143650585949407
leaf_weight=287.06739719212055 593.60558942705393 389.7940189987421 3.9102395772933951
leaf_count=1756 440 2944 28
internal_value=-0.000378239 0.0242371 0.0625414
internal_weight=1274.38 680.772 393.704
internal_count=5168 4728 2972
is_linear=0
shrinkage=0.03


Tree=23
num_leaves=3
num_cat=0
split_feature=17 4
split_gain=1045.68 1683.82
threshold=1.0000000180025095e-35 1.0000000180025095e-35
decision_type=2 2
left_child=-1 -2
right_child=1 -3
leaf_value=-0.028745912266600521 -0.028864877215675305 0.065549416107880579
leaf_weight=583.98888268321753 294.15890415757895 402.45567964762449
leaf_count=1996 2972 200
internal_value=0.000856853 0.0256784
internal_weight=1280.6 696.615
internal_count=5168 3172
is_linear=0
shrinkage=0.03


Tree=24
num_leaves=4
num_cat=0
split_feature=4 17 29
split_gain=966.958 1412.24 2.58869
threshold=1.0000000180025095e-35 1.0000000180025095e-35 1.5000000000000002
decision_type=2 2 2
left_child=1 -1 -3
right_child=-2 2 -4
leaf_value=0.059871857731220647 -0.028430733126162792 -0.02823232298370771 0
leaf_weight=405.14061452448368 583.69642711430788 274.76880574971437 3.1250678524374953
leaf_count=1756 440 2944 28
internal_value=-7.72162e-05 0.0241489 -0.0279235
internal_weight=1266.73 683.034 277.894
internal_count=5168 4728 2972
is_linear=0
shrinkage=0.03


Tree=25
num_leaves=3
num_cat=0
split_feature=17 4
split_gain=943.076 1540.52
threshold=1.0000000180025095e-35 1.0000000180025095e-35
decision_type=2 2
left_child=1 -1
right_child=-2 -3
leaf_value=-0.028694306080772627 -0.028492717299803457 0.062200231322885692
leaf_weight=292.40763465315104 580.95871791988611 393.51415322721004
leaf_count=1756 3172 240
internal_value=-0.000368083 0.0234491
internal_weight=1266.88 685.922
internal_count=5168 1996
is_linear=0
shrinkage=0.03


Tree=26
num_leaves=3
num_cat=0
split_feature=4 17
split_gain=925.634 1398.91
threshold=1.0000000180025095e-35 1.0000000180025095e-35
decision_type=2 2
left_child=1 -1
right_child=-2 -3
leaf_value=-0.028089672492123376 -0.028332134136115482 0.059037959778072135
leaf_weight=281.55247454345226 578.29012484848499 403.21979390084743
leaf_count=1756 440 2972
internal_value=-0.000385837 0.0232111
internal_weight=1263.06 684.772
internal_count=5168 4728
is_linear=0
shrinkage=0.03


Tree=27
num_leaves=3
num_cat=0
split_feature=17 4
split_gain=988.154 1534.92
threshold=1.0000000180025095e-35 1.0000000180025095e-35
decision_type=2 2
left_child=-1 -2
right_child=1 -3
leaf_value=-0.028486587605939483 -0.028594851922880738 0.061673874168814459
leaf_weight=570.23901358246803 287.05750551074743 413.71845638006926
leaf_count=1996 2972 200
internal_value=0.000831985 0.0246942
internal_weight=1271.01 700.776
internal_count=5168 3172
is_linear=0
shrinkage=0.03


Tree=28
num_leaves=6
num_cat=0
split_feature=4 24 24 29 29
split_gain=914.949 568.963 726.353 3.12888 0.146925
threshold=1.0000000180025095e-35 10.500000000000002 11.500000000000002 1.5000000000000002 1.5000000000000002
decision_type=2 2 2 2 2
left_child=1 4 -3 -4 -1
right_child=-2 2 3 -5 -6
leaf_value=-0.027970156314466661 -0.028175790231959711 0.05670665038989213 -0.027972227735050328 0.014651247757400459 -0.013362415723307319
leaf_weight=150.49048602581024 569.38178174942732 413.41678331792355 117.37525702267885 1.4202571287751187 1.6854404136538494
leaf_count=1655 440 1756 1289 12 16
internal_value=-7.90479e-05 0.0232926 0.0379202 -0.0274255 -0.0278369
internal_weight=1253.77 684.388 532.212 118.796 152.176
internal_count=5168 4728 3057 1301 1671
is_linear=0
shrinkage=0.03


Tree=29
num_leaves=3
num_cat=0
split_feature=17 4
split_gain=892.817 1410.69
threshold=1.0000000180025095e-35 1.0000000180025095e-35
decision_type=2 2
left_child=1 -1
right_child=-2 -3
leaf_value=-0.028429869601209225 -0.028241005655070438 0.05875592239009389
leaf_weight=285.18188630789518 566.5394567027688 402.76833416521549
leaf_count=1756 3172 240
internal_value=-0.000352382 0.0226108
internal_weight=1254.49 687.95
internal_count=5168 1996
is_linear=0
shrinkage=0.03


Tree=30
num_leaves=4
num_cat=0
split_feature=4 17 29
split_gain=876.462 1285.23 0.641642
threshold=1.0000000180025095e-35 1.0000000180025095e-35 1.5000000000000002
decision_type=2 2 2
left_child=1 -1 -3
right_child=-2 2 -4
leaf_value=-0.027845120336861498 -0.028082802626332701 0.056121729542251232 0.038941748091551036
leaf_weight=274.54664009809494 564.06616102904081 406.94440475106239 4.0977791249752036
leaf_count=1756 440 2944 28
internal_value=-0.00038442 0.0224007 0.0559673
internal_weight=1249.65 685.589 411.042
internal_count=5168 4728 2972
is_linear=0
shrinkage=0.03


Tree=31
num_leaves=4
num_cat=0
split_feature=4 24 24
split_gain=925.318 589.004 824.711
threshold=1.0000000180025095e-35 10.500000000000002 11.500000000000002
decision_type=2 2 2
left_child=-1 -2 -3
right_child=1 2 -4
leaf_value=-0.028189958547501968 0.058567707748387425 -0.02842432592540136 0.057762437174565438
leaf_weight=554.07646903395653 268.51946790516376 281.96437960863113 154.63579073548317
leaf_count=4728 126 240 74
internal_value=0.000816044 0.0236137 0.00210082
internal_weight=1259.2 705.12 436.6
internal_count=5168 440 314
is_linear=0
shrinkage=0.03


Tree=32
num_leaves=63
num_cat=0
split_feature=17 15 8 16 16 2 3 9 3 22 9 28 5 28 1 3 3 8 9 23 0 0 9 5 1 9 9 28 28 9 1 0 5 1 5 25 8 8 23 1 14 28 0 14 5 1 14 3 16 8 9 25 0 22 8 1 9 0 1 0 1 2
split_gain=827.647 126.625 30.0267 39.1807 41.7782 14.5202 13.8828 19.3026 13.8075 13.1019 11.9318 10.0973 9.67212 9.03504 8.86206 7.44518 10.1754 10.9391 6.65396 6.60313 6.31929 6.80743 6.15809 5.3255 6.22547 5.18877 10.8633 5.74266 7.51119 7.16839 6.01245 8.21294 6.95374 7.89728 11.8652 5.1382 5.10022 4.76582 11.3711 4.68943 4.78285 4.59357 13.2901 4.91054 4.52836 5.34093 4.37 4.19234 3.90162 3.50155 4.89805 3.17239 3.10911 3.10583 2.9546 2.31958 2.35065 2.28187 2.17334 2.10046 1.96022 1.68208
threshold=1.0000000180025095e-35 1.0000000180025095e-35 9.5000000000000018 13.500000000000002 8.5000000000000018 18.500000000000004 560006.50000000012 88.500000000000014 560031.00000000012 10.912516666666667 317.50000000000006 62.500000000000007 19.500000000000004 286.50000000000006 77.57670262500001 560060.50000000012 560010.50000000012 5.5000000000000009 6.5000000000000009 22.18503191666667 12.923618400000001 12.929098200000002 74.500000000000014 2.5000000000000004 77.595526300000003 315.50000000000006 348.50000000000006 236.50000000000003 273.50000000000006 87.500000000000014 77.70915620000001 13.015946100000003 6.5000000000000009 77.628877850000023 19.500000000000004 1.5000000000000002 4.5000000000000009 24.500000000000004 28.045098791666671 77.70915620000001 1.5000000000000002 273.50000000000006 12.981742950000003 4.5000000000000009 14.500000000000002 77.585406300000002 3.5000000000000004 560057.50000000012 11.500000000000002 25.500000000000004 43.500000000000007 1.5000000000000002 12.971102200000002 585.53727500000014 18.500000000000004 77.499562400000016 91.500000000000014 12.938012550000002 77.628877850000023 12.959122250000002 77.56901830000001 3.5000000000000004
decision_type=2 2 2 2 2 2 2 2 2 2 2 2 2 2 2 2 2 2 2 2 2 2 2 2 2 2 2 2 2 2 2 2 2 2 2 2 2 2 2 2 2 2 2 2 2 2 2 2 2 2 2 2 2 2 2 2 2 2 2 2 2 2
left_child=1 9 3 4 12 6 7 49 22 -1 53 23 14 20 60 16 19 35 -17 -5 37 -22 -7 -8 -25 27 -27 -23 -29 30 32 54 -30 34 44 59 -6 -13 -39 40 -19 42 -28 61 45 -34 -10 -38 -31 50 -4 -21 -36 -11 -32 56 -20 -16 -42 -18 -3 -43
right_child=-2 2 5 15 36 8 11 -9 46 10 -12 13 -14 -15 57 18 17 39 55 51 21 25 -24 24 -26 26 41 28 29 48 31 -33 33 -35 52 -37 47 38 -40 -41 58 43 -44 -45 -46 -47 -48 -49 -50 -51 -52 -53 -54 -55 -56 -57 -58 -59 -60 -61 -62 -63
leaf_value=-0.021874837362884491 -0.027720200023482338 0.012453583925943279 -0.005380744310971978 0.053051453972778016 0.0063928768636598793 0.013336988247726183 -0.0081716609052679412 0.052667975672591551 0.00917007072149492 0.0051700927071606246 0.039046772515574597 0.05111862347223705 0.051905197324231322 -0.0032414632642656289 0.024199499067493455 0.014274838963598449 0.0069934769668659183 -0.0024059705861528714 0.019381769715794316 0.0063334470686130153 0.0021018208517799316 0.053113637646741325 0.053062097233431665 0.011653168542385677 0.052890425271104428 0.053483066081857773 0.052902960315381532 -0.00629855501140334 0.050056323777543106 0.036631952801315398 0.02023470559012314 -0.0023135865979661396 0.038982642149279718 0.053313800972373697 0.020857820840916939 0.052417005157006542 -0.019078331396464698 0.05269039306753525 -0.0067759606010541701 -0.018259949344696703 0.037133842912995291 0.029267670088318043 -0.0018729375586590935 0.019991173269702921 -0.0053402534279136157 -0.00070291933280753574 -0.019015468623815038 -0.00033580789121086626 0.0086045445940324712 -0.012125561890502512 0.028179534925782772 0.037413055006833618 0.047775613541396179 -0.017606205206567839 0.052310193499571035 0.052691526261748042 0.051485410505507062 0.05129160899465831 0.007916775760573095 0.034053355364038078 -0.0082472142653018526 0.05392796863050147
leaf_weight=54.27334451675415 545.6660685390234 11.531925752758985 8.0096342861652392 14.373097360134127 13.778608024120329 7.0334106981754285 6.0775069743394878 8.8818450421094877 10.49466221034527 9.501894816756252 6.3976041823625556 44.867533534765244 11.412808701395987 4.8801626414060584 6.6588363796472532 7.3428873419761649 6.0963862538337725 11.651579827070242 5.7013134658336657 6.175735875964163 5.7143225818872443 11.507607117295263 7.6592398881912231 11.300168350338938 4.7744349241256705 39.829076603055 6.2203978449106243 4.6523500680923453 31.516579240560532 6.2429181635379818 5.9810539633035678 8.4748752713203412 6.9135861992836016 12.4569995701313 5.9122556746006039 7.6860106885433188 39.018198579549789 6.9512918889522535 4.7360926419496536 6.4889901578426352 5.9561547040939313 4.3268575966358211 10.51002064347267 8.860046401619913 9.6423964798450452 5.1393621265888214 9.0977700203657133 15.264665022492407 17.020625695586205 10.110985785722731 7.2937532216310492 6.1993594020605087 16.739579021930695 11.796971917152405 5.5152679234743118 21.664104774594307 3.8407594412565231 6.3464957624673843 4.2809379547834396 4.9822620749473572 6.11506763100624 13.584367483854292
leaf_count=61 3172 29 14 60 31 18 10 37 25 21 23 183 48 9 20 19 14 22 16 14 12 48 32 28 20 166 26 8 128 22 17 16 25 52 17 32 48 29 8 8 21 14 20 25 17 10 11 30 40 16 23 22 66 15 23 90 16 27 10 17 10 57
internal_value=-8.08217e-05 0.0216643 0.0263591 0.0175274 0.00476875 0.0313996 0.0332077 0.0148551 0.0125669 -0.013312 0.00337786 0.0351579 0.0282553 0.0366184 0.019212 0.0299815 0.024243 0.0156958 0.0408124 0.0390806 0.0372927 0.0350493 0.0344671 0.0152875 0.0243381 0.0358499 0.042019 0.0323234 0.0305072 0.0318354 0.03511 0.0197769 0.0385169 0.0319851 0.0258199 0.0334234 -0.00972317 0.0465528 0.0284852 0.00379184 0.0105189 0.0313555 0.0185079 0.039174 0.00971301 0.0219474 -0.00379568 -0.0138733 0.0163789 0.00136796 0.0104988 0.0223185 0.0410043 -0.00732832 0.0361998 0.0468954 0.0330148 0.0379396 0.0254009 0.0196269 0.00510521 0.0483329
internal_weight=1239.13 693.465 611.495 222.566 110.127 388.929 354.644 34.2962 34.2851 81.9698 27.6965 320.348 42.0651 298.196 30.6523 112.44 73.8905 47.1423 38.5491 26.7482 293.315 236.761 14.6927 22.1521 16.0746 231.046 83.3308 147.715 136.208 131.555 108.292 19.9712 88.3208 56.8042 44.3472 18.7647 68.0615 56.5549 11.6874 28.3777 21.8887 43.5017 16.7304 26.7713 21.6953 12.0529 19.5924 54.2829 23.2635 25.4144 15.3034 12.3751 22.6518 21.2989 11.4963 31.2062 9.54207 13.0053 10.2371 11.0786 17.647 17.9112
internal_count=5168 1996 1876 604 243 1272 1186 90 86 120 59 1096 134 1038 86 361 220 124 141 96 1029 809 50 58 48 797 308 489 441 433 371 56 315 187 135 63 109 220 37 61 53 142 46 96 52 35 36 78 62 53 37 36 83 36 40 122 32 47 31 31 39 71
is_linear=0
shrinkage=0.03


Tree=33
num_leaves=3
num_cat=0
split_feature=17 4
split_gain=845.829 1296.7
threshold=1.0000000180025095e-35 1.0000000180025095e-35
decision_type=2 2
left_child=1 -1
right_child=-2 -3
leaf_value=-0.028175729612582159 -0.027998822833163219 0.055729885458913039
leaf_weight=277.93541444838047 552.08687112480402 410.36144362390041
leaf_count=1756 3172 240
internal_value=-0.000338145 0.0218451
internal_weight=1240.38 688.297
internal_count=5168 1996
is_linear=0
shrinkage=0.03


Tree=34
num_leaves=4
num_cat=0
split_feature=4 17 29
split_gain=830.542 1184.94 0.572087
threshold=1.0000000180025095e-35 1.0000000180025095e-35 1.5000000000000002
decision_type=2 2 2
left_child=1 -1 -3
right_child=-2 2 -4
leaf_value=-0.027609048647481666 -0.027842589790576296 0.053404788113832306 0.037122383946096633
leaf_weight=267.5283620133996 549.81848496943712 413.09376589953899 4.1601524949073783
leaf_count=1756 440 2944 28
internal_value=-0.000382641 0.0216617 0.0532586
internal_weight=1234.6 684.782 417.254
internal_count=5168 4728 2972
is_linear=0
shrinkage=0.03


Tree=35
num_leaves=3
num_cat=0
split_feature=17 4
split_gain=884.219 1291.71
threshold=1.0000000180025095e-35 1.0000000180025095e-35
decision_type=2 2
left_child=-1 -2
right_child=1 -3
leaf_value=-0.027994195160095377 -0.028085752588831125 0.055324814852371673
leaf_weight=541.95885789394379 272.78059717267752 430.85716669261456
leaf_count=1996 2972 200
internal_value=0.000801212 0.0229852
internal_weight=1245.6 703.638
internal_count=5168 3172
is_linear=0
shrinkage=0.03


Tree=36
num_leaves=63
num_cat=0
split_feature=17 15 8 16 16 2 3 3 22 27 28 5 28 22 3 3 8 26 23 27 6 5 8 25 26 3 0 23 16 0 5 5 0 6 5 3 27 2 6 6 28 0 8 26 0 3 28 28 5 28 0 26 0 6 5 5 27 5 6 5 8 5
split_gain=783.457 117.131 27.3229 36.0022 38.7931 13.2154 12.734 12.6408 12.5595 10.2981 9.20119 8.79659 8.27147 6.81215 6.74968 9.27974 10.0666 6.18438 6.01714 5.53938 5.30576 4.93447 4.84248 4.67084 4.50593 4.42018 7.24297 6.56166 5.07381 4.4447 4.22193 5.5206 4.16945 5.54449 4.06081 4.02979 3.86493 5.00648 3.53698 7.06433 4.61952 4.98716 4.35282 3.46149 3.3527 3.34692 3.33035 4.65464 3.12848 3.12811 3.10626 4.67016 3.02518 4.07592 2.77972 2.58148 2.18161 2.67517 4.37012 2.17927 1.97926 3.9635
threshold=1.0000000180025095e-35 1.0000000180025095e-35 9.5000000000000018 13.500000000000002 8.5000000000000018 18.500000000000004 560031.00000000012 560006.50000000012 10.912516666666667 7.5000000000000009 62.500000000000007 19.500000000000004 286.50000000000006 180.36250833333335 560060.50000000012 560010.50000000012 5.5000000000000009 24.500000000000004 22.18503191666667 8.5000000000000018 2.5000000000000004 2.5000000000000004 4.5000000000000009 1.5000000000000002 26.500000000000004 560060.50000000012 12.942687450000003 51.268124966666669 13.500000000000002 13.056517650000002 1.5000000000000002 5.5000000000000009 12.965265700000002 3.5000000000000004 8.5000000000000018 560057.50000000012 7.5000000000000009 6.5000000000000009 4.5000000000000009 2.5000000000000004 273.50000000000006 13.007110680000002 13.500000000000002 38.500000000000007 12.987283350000002 560005.50000000012 45.500000000000007 18.500000000000004 4.5000000000000009 273.50000000000006 12.987933600000003 11.500000000000002 12.889485150000002 5.5000000000000009 9.5000000000000018 15.500000000000002 6.5000000000000009 7.5000000000000009 3.5000000000000004 6.5000000000000009 15.500000000000002 7.5000000000000009
decision_type=2 2 2 2 2 2 2 2 2 2 2 2 2 2 2 2 2 2 2 2 2 2 2 2 2 2 2 2 2 2 2 2 2 2 2 2 2 2 2 2 2 2 2 2 2 2 2 2 2 2 2 2 2 2 2 2 2 2 2 2 2 2
left_child=1 8 3 4 11 7 45 9 -1 -4 21 30 17 -10 15 18 23 32 -5 24 -20 -9 -6 -17 -19 26 -26 38 -29 52 -3 -32 -12 49 -11 -24 -18 -38 39 42 -41 -42 -28 -30 -33 -7 47 -23 -31 -34 -51 -52 -27 -54 -15 -8 -16 58 -58 -53 -50 -62
right_child=-2 2 5 14 22 6 55 10 13 34 12 -13 -14 54 56 16 36 19 20 -21 -22 46 35 -25 25 29 27 28 43 48 31 44 33 -35 -36 -37 37 -39 -40 40 41 -43 -44 -45 -46 -47 -48 -49 60 50 51 59 53 -55 -56 -57 57 -59 -60 -61 61 -63
leaf_value=-0.021564165159018506 -0.027490505940080973 -0.0019344823402898442 0.040981857893974107 0.050694542803216114 0.0061987993320320438 0.020232107452536039 0.006669287021497129 -0.0079708840884884415 0.028028460166355261 -0.0061402858405944904 0.04778589058756412 0.049549133251673115 -0.0031358400914125915 0.0077181435301726465 0.021676354295956681 0.018894610639379049 -0.0092930468371927796 0.012766509833942178 -0.0011618924348449225 0.05070848962343702 0.037882040135809605 0.0096579752709107791 -0.018756829537886946 0.050067280005347818 0.0021971399259619142 0.023622130431219125 0.0200963900100538 0.0042070376540045791 0.0137058784952404 0.049815876992147907 0.042047223477090563 0.0015865048069662803 0.049931309758000086 0.05084405822453357 0.018206594594640638 -0.00029765661951170776 0.00063889984748634039 0.035404481058802985 0.051033225671439898 0.0031511401899778015 0.051247260429934979 0.0071580174574805422 0.051581522475237833 0.05017245160656203 0.032589943177306777 0.05046055467807993 0.0046262457075902201 0.051372921693218221 0.012069377660516132 0.0036262663753139279 0.050100547665588586 0.032938688456950395 0.051080600878927629 0.025181566669679845 -0.014683236405970058 -0.015000150118584833 0.016361546784555349 0.050802917010450054 0.049918227332522908 0.0091951741369941612 0.011976710343013864 0.04208925575415419
leaf_weight=53.110522150993347 531.40894535183907 6.8053935319185284 9.3856609016656858 14.529505088925363 13.772574022412298 8.7521868199110013 10.038423508405687 6.019414737820628 7.2865958362817791 14.377562761306764 54.481051355600357 11.544015392661093 4.8474795520305625 8.1413823366165179 6.4827044904232016 11.128604575991632 11.740485087037088 12.151355370879172 5.2012134492397291 14.562894016504286 7.240409791469574 4.5145631879568118 38.284258633852005 7.7722660005092612 9.4571514725685102 6.955784246325492 5.9309858083725002 13.243689522147179 4.9874555319547653 5.3388642817735663 9.599377855658533 9.6080844104289991 5.0912395268678656 14.310811638832091 10.521717756986616 15.19329398870468 10.772932067513468 5.7559446245431891 12.111491218209265 9.7660040110349655 5.543769046664238 4.2687742114067078 16.200563699007034 5.0854216814041138 4.7392980009317389 6.0537193566560736 5.8623663038015357 5.7837243378162384 9.5075487196445483 5.9536064863204983 6.5514441430568722 6.1984780281782141 33.970496743917465 7.4884792417287818 12.136111930012701 9.3946663141250593 8.127541318535803 17.472780302166939 6.800396040081977 9.1373187601566297 7.1172900497913387 10.113558277487753
leaf_count=61 3172 13 35 60 31 25 23 10 23 26 217 48 9 19 19 31 19 31 10 60 26 11 48 32 20 21 17 29 13 22 36 21 21 59 29 30 22 20 50 21 23 10 67 21 16 25 13 24 24 13 27 22 140 23 17 13 22 72 28 22 18 38
internal_value=-7.53339e-05 0.0209038 0.0253729 0.016938 0.00464232 0.0301601 0.0121673 0.0318743 -0.013042 0.0143443 0.0337233 0.0271378 0.0351089 0.00328864 0.0288142 0.023344 0.0151584 0.0357472 0.0374401 0.032486 0.0214414 0.0147503 -0.00948069 0.0320671 0.0309612 0.0322581 0.0273466 0.0303842 0.0167416 0.0374643 0.0184943 0.0244085 0.041893 0.0349473 0.00405967 -0.0135788 0.00367436 0.013066 0.0361968 0.0317052 0.0181715 0.0326354 0.0434072 0.0327236 0.0121901 0.0330485 0.0233948 0.0336432 0.0283498 0.0278154 0.0234995 0.0287277 0.0433704 0.0465467 -0.00554816 -0.00367609 0.0390809 0.0423935 0.0320783 0.0191375 0.0237823 0.0299651
internal_weight=1225.73 694.323 613.648 222.571 109.546 391.077 34.239 356.838 80.6746 34.2849 322.553 42.2962 300.373 27.5641 113.025 74.1414 47.1702 295.526 26.9711 193.802 12.4416 22.1801 67.2501 18.9009 179.239 167.087 86.5953 77.1382 23.3166 80.492 30.7522 23.9468 101.724 47.2429 24.8993 53.4776 28.2694 16.5289 53.8216 41.7101 19.5785 9.81254 22.1315 10.0729 14.3474 14.8059 16.1607 10.2983 32.0773 32.9321 27.8408 21.8872 48.4148 41.459 20.2775 19.4331 38.8834 32.4007 14.9279 15.3358 26.7384 17.2308
internal_count=5168 1996 1876 604 243 1272 86 1186 120 90 1096 134 1038 59 361 220 124 1029 96 648 36 58 109 63 588 557 271 251 63 286 86 73 381 164 55 78 61 42 188 138 54 33 84 34 37 50 48 35 102 105 84 71 184 163 36 36 141 122 50 44 80 56
is_linear=0
shrinkage=0.03


Tree=37
num_leaves=3
num_cat=0
split_feature=17 4
split_gain=802.466 1207.97
threshold=1.0000000180025095e-35 1.0000000180025095e-35
decision_type=2 2
left_child=1 -1
right_child=-2 -3
leaf_value=-0.027983056879623869 -0.0277660567843338 0.053304363212169845
leaf_weight=272.08160553872585 537.64152346551418 415.82978640496731
leaf_count=1756 3172 240
internal_value=-0.000307234 0.0211499
internal_weight=1225.55 687.911
internal_count=5168 1996
is_linear=0
shrinkage=0.03


Tree=38
num_leaves=4
num_cat=0
split_feature=4 17 29
split_gain=783.213 1100.45 0.566802
threshold=1.0000000180025095e-35 1.0000000180025095e-35 1.5000000000000002
decision_type=2 2 2
left_child=1 -1 -3
right_child=-2 2 -4
leaf_value=-0.027425549178608653 -0.027595960418652102 0.050990210040639403 0.035152359592969327
leaf_weight=261.87289486080408 534.62001932412386 417.74549601972103 4.2243287265300742
leaf_count=1756 440 2944 28
internal_value=-0.000393761 0.0208691 0.0508471
internal_weight=1218.46 683.843 421.97
internal_count=5168 4728 2972
is_linear=0
shrinkage=0.03


Tree=39
num_leaves=3
num_cat=0
split_feature=17 4
split_gain=837.968 1191.29
threshold=1.0000000180025095e-35 1.0000000180025095e-35
decision_type=2 2
left_child=-1 -2
right_child=1 -3
leaf_value=-0.02776666667499144 -0.027846130158279792 0.052699175333279592
leaf_weight=528.22964799404144 265.63471318036318 436.91573719680309
leaf_count=1996 2972 200
internal_value=0.00077565 0.0222411
internal_weight=1230.78 702.55
internal_count=5168 3172
is_linear=0
shrinkage=0.03


Tree=40
num_leaves=63
num_cat=0
split_feature=17 15 8 16 16 2 3 22 27 0 28 8 3 3 16 0 0 13 2 23 9 28 25 23 9 9 0 9 3 3 14 23 6 3 9 3 9 0 7 9 16 3 2 13 8 9 6 23 0 0 8 9 3 16 25 9 6 14 0 0 29 8
split_gain=741.507 128.596 33.7309 33.4705 38.556 21.0647 10.7212 9.08312 8.56592 11.7693 8.49753 8.12257 7.86114 7.35117 7.29102 7.88664 6.04778 5.6802 4.81624 9.49149 9.68131 4.83129 4.73124 7.86391 4.17127 8.11328 7.87133 4.15659 3.98905 4.63923 3.84427 3.42264 3.41683 3.25731 3.19096 3.86783 3.88826 4.07049 3.09655 8.41441 5.46767 5.39483 4.20128 5.50671 7.64768 5.501 5.40008 4.50679 3.98769 3.41844 3.14695 5.17056 2.82969 5.94347 2.43903 2.12885 1.72898 1.7198 1.44017 4.20325 1.3705 1.36111
threshold=1.0000000180025095e-35 1.0000000180025095e-35 9.5000000000000018 13.500000000000002 10.500000000000002 18.500000000000004 560001.50000000012 10.912516666666667 3.5000000000000004 13.008045900000001 286.50000000000006 4.5000000000000009 560057.50000000012 560020.50000000012 13.500000000000002 13.000508400000003 12.945920000000003 1.0000000180025095e-35 11.500000000000002 143.88479534166672 56.500000000000007 62.500000000000007 1.5000000000000002 33.294691833333339 67.500000000000014 65.500000000000014 13.045655450000002 348.50000000000006 560057.50000000012 560026.50000000012 2.5000000000000004 41.327900858333344 2.5000000000000004 560077.50000000012 72.500000000000014 560068.50000000012 317.50000000000006 12.935461450000002 7.5000000000000009 354.50000000000006 10.500000000000002 560006.50000000012 7.5000000000000009 1.0000000180025095e-35 14.500000000000002 89.500000000000014 4.5000000000000009 124.94430050000001 12.969566650000003 12.984831500000002 20.500000000000004 70.500000000000014 560077.50000000012 2.5000000000000004 1.5000000000000002 57.500000000000007 1.0000000180025095e-35 4.5000000000000009 13.054899500000001 13.064431100000002 1.5000000000000002 22.500000000000004
decision_type=2 2 2 2 2 2 2 2 2 2 2 2 2 2 2 2 2 2 2 2 2 2 2 2 2 2 2 2 2 2 2 2 2 2 2 2 2 2 2 2 2 2 2 2 2 2 2 2 2 2 2 2 2 2 2 2 2 2 2 2 2 2
left_child=1 7 3 4 13 6 17 57 9 32 18 -6 -13 30 -7 -16 -9 61 21 34 -21 -8 23 28 25 56 31 -17 29 -10 -3 -27 -5 -30 -20 36 37 -36 41 58 -41 -23 43 45 -45 47 50 -43 -46 -42 51 -44 -15 -54 -38 -18 -24 -1 -40 -60 -2 -4
right_child=60 2 5 8 11 14 10 16 22 -11 -12 12 -14 52 15 27 55 -19 19 20 -22 38 24 -25 -26 26 -28 -29 33 -31 -32 -33 -34 -35 35 -37 54 -39 39 40 49 42 46 44 48 -47 -48 -49 -50 -51 -52 -53 53 -55 -56 -57 -58 -59 59 -61 -62 -63
leaf_value=-0.011859461654442757 -0.027430732433399274 -0.0093717728352851384 0.01080384846739026 0.012114921727740811 0.01543349885781615 -0.0067605275619611301 0.012850946682738337 0.023822596381988453 0.024551464398246958 -0.010955229298245947 -0.005876020022905366 -0.019970976651583702 0.0049630190479576916 0.043230418281128398 0.04962570137679833 0.020879637376277682 -0.02025887606752616 0.035189762912530613 0.049853428246657887 -0.0044611058686380703 0.039585331182177309 0 0.023009696205899027 0.049829019135461207 0.045839800980750717 0.047828019749865107 -0.014405771004895868 -0.011012671083112028 0.048046400516211341 -0.0052927444676635531 0.022950006718439539 0.0098369813790021212 0.040199283112849531 0.012449396624297173 0.0052328146404339573 0.049078829945800817 0.026801473530581241 0.036649561731729334 0.04905340432352466 0.0031572393611065683 0.021133152541475218 0.047078250945563983 0.048049863162383695 0.00051264870761770021 0.020174293822593531 0.0064125035528252213 0.048131139243488767 0.023833640004757718 0.049145898848911775 0.049126145509332933 0.003714322301956354 0.0070494432300965216 0.049332142375578751 0.0082502503596731391 0.049922167442230138 -0.00046379031091230556 0.049552092326985514 -0.024995338451124106 0.01365440326473138 0.048812969291640099 -0.010823784486908608 -0.0074373141566762774
leaf_weight=13.043814063072203 504.67912020534277 6.2564361095428449 6.81878210604191 7.4374037533998552 9.853781118988989 15.559275284409521 12.137383624911307 6.6732367277145412 7.7831936180591645 11.495814144611357 4.5716961920261374 45.127538725733757 14.924200177192686 16.418397709727291 5.8290514051914242 9.2799850553274137 8.487837493419649 6.2591232359409323 43.069325059652328 8.2355217337608355 9.4508162289857847 5.4174826443195334 3.6146223098039636 7.5326077342033377 26.297938346862793 4.6395860910415632 5.7684979289770135 5.8353397101163855 4.8832823485136014 11.21782401204109 6.6575827151536942 4.4358894973993301 9.441210135817526 5.0359888225793839 8.4074449688196164 20.034973680973053 8.2182459235191363 7.0015228986740103 34.720158785581589 8.2763312458992022 10.244464024901392 42.522851780056953 5.1296832412481361 9.2101215571165103 9.7018729895353335 4.3066490888595572 5.3729179650545111 10.232157483696936 8.7772574126720411 7.3111644983291617 12.4026682972908 6.4016806930303574 5.1042356044054022 8.8165853321552259 11.636273160576819 12.115525066852568 12.145183965563772 41.889257848262787 5.3284190744161597 8.543906241655348 5.2919487729668608 7.6840547174215317
leaf_count=20 3183 11 17 19 26 27 31 20 24 18 8 55 33 64 24 27 10 22 177 15 35 11 11 31 104 19 8 9 20 20 20 11 35 13 19 82 26 25 142 18 30 170 21 19 28 10 22 31 36 30 28 15 21 21 48 24 50 43 14 35 27 13
internal_value=0.000251444 0.020275 0.0249598 0.0159673 0.00418389 0.0304481 0.0327288 -0.01494 0.026884 0.0122155 0.0340628 -0.00955712 -0.0137265 0.026432 0.00862906 0.0201821 -0.000668063 0.0115345 0.0346406 0.0396874 0.018997 0.0317655 0.0312924 0.0225245 0.0368074 0.0288242 0.0124976 0.00837884 0.0151622 0.00683951 0.00710891 0.0298954 0.0281451 0.0305779 0.0433539 0.0381568 0.0317454 0.0198457 0.0329267 0.0379505 0.0237213 0.0297431 0.0311314 0.0345891 0.0232032 0.0400114 0.0209466 0.0426802 0.0342872 0.0331732 0.0145443 0.0258025 0.034508 0.0237718 0.0406846 -0.00882202 0.043837 -0.021958 0.045389 0.0357175 -0.0272664 0.000948926
internal_weight=1211 701.026 618.816 234.888 113.159 383.929 347.425 82.2097 121.729 28.3744 326.663 69.9055 60.0517 43.2532 36.5037 20.9444 27.2766 20.762 322.091 116.054 17.6863 206.037 93.3546 36.4529 56.9017 30.6038 14.844 15.1153 28.9203 19.001 12.914 9.07548 16.8786 9.91927 98.3678 55.2985 35.2635 15.409 193.9 74.4244 25.832 119.475 114.058 84.7509 27.6893 57.0617 29.307 52.755 18.4791 17.5556 23.934 11.5314 30.3392 13.9208 19.8545 20.6034 15.7598 54.9331 48.5925 13.8723 509.971 14.5028
internal_count=5226 2016 1899 634 251 1265 1178 117 383 72 1126 114 88 137 87 60 54 52 1118 427 50 691 311 108 203 99 38 36 77 44 31 30 54 33 377 200 118 44 660 269 78 391 380 294 83 211 86 201 64 60 64 36 106 42 74 34 61 63 191 49 3210 30
is_linear=0
shrinkage=0.03


Tree=41
num_leaves=4
num_cat=0
split_feature=4 17 26
split_gain=780.986 1103.5 1.37197
threshold=1.0000000180025095e-35 1.0000000180025095e-35 2.5000000000000004
decision_type=2 2 2
left_child=-1 -2 -3
right_child=1 2 -4
leaf_value=-0.027573157222135325 0.051189213930812411 -0.018363857943423486 -0.027743152078083762
leaf_weight=522.25646775215864 421.82359769940376 17.846332192420959 244.81355413794518
leaf_count=4793 242 13 178
internal_value=5.11107e-05 0.0211336 -0.0271245
internal_weight=1206.74 684.483 262.66
internal_count=5226 433 191
is_linear=0
shrinkage=0.03


Tree=42
num_leaves=4
num_cat=0
split_feature=17 4 29
split_gain=745.598 1031.5 0.779779
threshold=1.0000000180025095e-35 1.0000000180025095e-35 1.5000000000000002
decision_type=2 2 2
left_child=-1 2 -2
right_child=1 -3 -4
leaf_value=-0.027377547072810371 0.048829630641312252 -0.027311276441622827 0.031118569565777517
leaf_weight=512.61041533201933 428.14298066496849 255.8136800378561 3.860006019473075
leaf_count=2016 2994 191 25
internal_value=4.24272e-06 0.0204165 0.0486856
internal_weight=1200.43 687.817 432.003
internal_count=5226 3210 3019
is_linear=0
shrinkage=0.03


Tree=43
num_leaves=63
num_cat=0
split_feature=17 25 5 27 15 0 8 26 26 1 23 8 8 9 8 9 6 28 16 5 0 0 28 9 5 26 1 5 9 6 25 5 9 28 26 0 9 8 6 27 26 29 1 1 16 24 1 9 8 5 26 16 0 6 1 0 1 8 8 9 28 24
split_gain=751.314 126.44 20.3592 19.6588 17.4735 14.637 12.3986 11.6118 14.7392 19.8274 11.3687 11.1764 10.9213 14.3646 13.8163 10.7472 10.4636 14.1467 10.0079 20.8212 11.4003 8.63564 8.56784 8.08891 7.86274 7.8323 7.81633 7.83687 7.77327 6.86904 7.59928 6.76856 6.76231 8.63111 6.65718 6.56249 8.00315 6.39939 4.85568 5.89234 4.70184 6.53305 16.6563 6.34982 5.61221 7.42741 4.63556 6.55072 4.30615 13.4568 4.11396 10.2645 10.1323 3.54691 5.28773 3.40211 8.47556 3.36337 9.50364 6.48647 3.30966 10.4405
threshold=1.0000000180025095e-35 4.5000000000000009 18.500000000000004 1.0000000180025095e-35 1.0000000180025095e-35 12.923618400000001 3.5000000000000004 5.5000000000000009 23.500000000000004 77.597046150000025 129.72354275833337 19.500000000000004 17.500000000000004 58.500000000000007 24.500000000000004 90.500000000000014 2.5000000000000004 227.50000000000003 3.5000000000000004 6.5000000000000009 12.911042900000002 12.945128840000001 11.500000000000002 40.500000000000007 21.500000000000004 42.500000000000007 77.662898500000011 11.500000000000002 76.500000000000014 1.5000000000000002 1.5000000000000002 1.5000000000000002 335.50000000000006 54.500000000000007 31.500000000000004 12.966640050000001 333.50000000000006 12.500000000000002 5.5000000000000009 1.5000000000000002 22.500000000000004 1.0000000180025095e-35 77.584338650000021 77.537003450000014 11.500000000000002 1.0000000180025095e-35 77.524123500000016 359.50000000000006 5.5000000000000009 11.500000000000002 23.500000000000004 9.5000000000000018 12.969369700000003 4.5000000000000009 77.641499820000021 13.041328250000001 77.556018550000019 9.5000000000000018 19.500000000000004 41.500000000000007 240.50000000000003 14.500000000000002
decision_type=2 2 2 2 2 2 2 2 2 2 2 2 2 2 2 2 2 2 2 2 2 2 2 2 2 2 2 2 2 2 2 2 2 2 2 2 2 2 2 2 2 2 2 2 2 2 2 2 2 2 2 2 2 2 2 2 2 2 2 2 2 2
left_child=-1 3 4 35 -3 -4 31 10 9 16 -8 32 23 14 -14 -13 17 46 19 -6 -20 -18 -11 34 -19 28 40 -28 37 30 -24 -5 50 -34 -10 -2 -37 -25 39 -17 43 42 -42 -22 -43 -46 -9 -48 -27 -50 51 52 -7 54 -39 57 -57 -23 59 -59 -60 -62
right_child=1 2 5 6 18 11 7 8 12 22 -12 15 13 -15 -16 38 21 24 20 -21 26 55 29 25 -26 48 27 -29 -30 -31 -32 -33 33 -35 -36 36 -38 53 -40 -41 41 44 -44 -45 45 -47 47 -49 49 -51 -52 -53 -54 -55 -56 56 -58 58 60 -61 61 -63
leaf_value=-0.02755215408879837 0.04370051870732504 0.046012226202513565 -0.026511657753707982 0.01552470594002253 -0.026724690248060807 0.023270764935282229 -0.028378456190727028 0.04219196080406773 0.019702695476998988 0.04579149655849301 0.039007490223372243 -0.026893676251422319 -0.026743101179627613 -0.02735336503451757 0.02382692245162104 0.032821465521657246 -0.02572545809486837 -0.027091481534339604 -0.025578994969907488 0.032765250979740486 -0.023920891134753822 0.039776139715601302 0.024162806600433337 -0.025654223159707192 0.024404632144049591 0.042269283288126458 -0.026648423132922483 0.041315857335724439 -0.026759784171423773 -0.027170839463382494 -0.026196825971124243 -0.027218491741927083 0.043969418587901023 -0.026432322608326644 -0.026921513266142727 -0.025819586257460489 0.031806183609964435 -0.02536397659770534 0.041416983514751503 -0.025830805944232045 0.034049252742878698 0.037873838482492921 -0.026690168132263069 0.040295839363180409 0.043854423021470176 -0.0258704044311584 -0.025670821138966134 0.039566782725779362 -0.026311512641834126 0.029258158191372154 0.038667936144540629 0.040128164690796608 -0.026695344515418083 0.040864919690376825 0.033391048641631338 -0.026074290346341233 0.032672991060777888 0.028570955183735473 0.044785488885790363 -0.026625430545246825 -0.0031227541788851395 0.043612770532048525
leaf_weight=518.66578353941441 15.077490806579592 97.584249004721642 5.7312294095754615 3.9884961545467403 8.1357127130031603 10.19578665494919 14.94768086075783 7.5928829088807106 3.7050400823354712 2.2730689048767116 2.5268857628107062 7.1703683957457569 7.3661793023347881 25.388201050460339 13.737912744283674 2.7880492582917196 2.6591348424553862 11.657542161643503 2.8355491235852233 14.606729932129381 1.2859641686081875 23.686565257608891 6.6792203634977358 2.996391266584399 3.3086145296692857 7.6361462399363544 3.7094709128141394 2.4471651315689087 7.0402615666389456 14.476090200245379 4.3535413593053818 16.793662324547768 2.3516421839594832 4.2374445721507072 9.5262638032436353 3.2625487297773343 5.884209506213665 2.500953793525694 5.0346736460924149 3.1960540041327477 11.384262748062612 43.440822497010231 6.1494958549737921 95.376732207834721 2.3592661544680587 2.9908451363444328 2.7918622344732285 2.5344275757670403 5.0832102596759823 15.648441523313521 31.84646550565958 15.425272278487681 5.5319706350564948 5.104033887386322 2.795036643743515 3.4175914674997312 5.7391325607895851 3.060582570731639 12.158543370664121 4.7131481021642685 7.3992521241307285 9.7772601246833784
leaf_count=2016 25 89 67 21 96 41 155 13 18 1 4 82 86 296 59 7 30 135 33 43 14 48 27 35 13 14 42 3 81 168 51 195 2 48 109 38 18 29 8 37 31 100 71 162 2 34 32 4 60 57 66 26 63 9 7 39 16 10 15 53 60 12
internal_value=-0.000313406 0.0203047 0.0316554 0.00565659 0.0355684 0.0193666 0.00335704 0.00518939 0.00694216 0.0138241 -0.018297 0.022423 -0.00116986 -0.0121724 0.00599158 0.00130055 0.0200302 0.00426059 0.0302981 0.0113286 0.0327812 0.0260308 -0.00850881 0.00703399 -0.0154215 0.0127033 0.0337918 0.000115384 -0.00132189 -0.0136245 0.00396455 -0.0188365 0.0278912 -0.000575782 -0.0135909 0.0315233 0.0108703 0.0119235 0.0199944 0.00109306 0.0350446 0.0286215 0.0125458 0.0393867 0.0342997 0.00456656 0.027235 0.00497565 0.0228818 0.0154281 0.0309123 0.0227896 0.00544887 0.0231771 0.00513303 0.028075 0.0103777 0.0306698 0.0246853 -0.00442627 0.0324906 0.023405
internal_weight=1203.77 685.103 385.815 299.288 292.306 93.509 275.063 254.281 236.807 128.278 17.4746 87.7777 108.528 46.4923 21.1041 18.1891 100.497 27.8853 194.722 22.7424 171.98 72.6112 27.7819 62.0358 14.9662 48.8045 169.144 6.15664 20.4367 25.5089 11.0328 20.7822 69.5886 6.58909 13.2313 24.2242 9.14676 13.3964 11.0188 5.9841 162.987 66.3247 17.5338 96.6627 48.7909 5.35011 12.9192 5.32629 28.3678 20.7317 62.9995 31.153 15.7278 10.4 5.29599 69.9521 9.15672 60.7954 37.1088 7.77373 29.3351 17.1765
internal_count=5226 3210 1167 2043 720 447 1962 1746 1587 727 159 380 860 441 145 134 480 197 631 139 492 283 247 419 148 292 459 45 161 246 78 216 246 50 127 81 56 80 52 44 414 238 102 176 136 36 49 36 131 117 196 130 104 45 36 253 55 198 150 63 87 72
is_linear=0
shrinkage=0.03


Tree=44
num_leaves=5
num_cat=0
split_feature=4 24 24 29
split_gain=773.326 450.705 539.178 4.73871
threshold=1.0000000180025095e-35 10.500000000000002 11.500000000000002 1.5000000000000002
decision_type=2 2 2 2
left_child=1 -1 -3 -4
right_child=-2 2 3 -5
leaf_value=-0.027088960800922518 -0.027448544685769717 0.04852594060553525 -0.02707992893096044 0.022368629328059986
leaf_weight=138.17855634540319 515.97395697981119 433.83659984171391 106.59532686322927 1.6357380300760258
leaf_count=1697 433 1774 1308 14
internal_value=0.000241912 0.0212508 0.0335813 -0.0262849
internal_weight=1196.22 680.246 542.068 108.231
internal_count=5226 4793 3096 1322
is_linear=0
shrinkage=0.03


Tree=45
num_leaves=4
num_cat=0
split_feature=4 17 25
split_gain=743.54 1031.53 0.385522
threshold=1.0000000180025095e-35 1.0000000180025095e-35 1.5000000000000002
decision_type=2 2 2
left_child=-1 -2 -3
right_child=1 2 -4
leaf_value=-0.02737445615552677 0.049231968242337783 -0.023325848988034879 -0.02753148264331241
leaf_weight=508.70414175838232 424.93692684173584 38.556644320487976 218.11969574540854
leaf_count=4793 242 28 163
internal_value=6.59911e-05 0.0205509 -0.0269207
internal_weight=1190.32 681.613 256.676
internal_count=5226 433 191
is_linear=0
shrinkage=0.03


Tree=46
num_leaves=3
num_cat=0
split_feature=17 4
split_gain=708.934 965.944
threshold=1.0000000180025095e-35 1.0000000180025095e-35
decision_type=2 2
left_child=-1 -2
right_child=1 -3
leaf_value=-0.027175533422195228 0.046906249418639065 -0.027125022124167075
leaf_weight=499.13003856688738 433.85387606918812 249.87051323056221
leaf_count=2016 3019 191
internal_value=1.56426e-06 0.0198468
internal_weight=1182.85 683.724
internal_count=5226 3210
is_linear=0
shrinkage=0.03


Tree=47
num_leaves=4
num_cat=0
split_feature=4 17 26
split_gain=730.316 1007.7 0.373502
threshold=1.0000000180025095e-35 1.0000000180025095e-35 2.5000000000000004
decision_type=2 2 2
left_child=-1 -2 -3
right_child=1 2 -4
leaf_value=-0.027393105144900728 -0.0273950311504642 0.043028352873923321 0.048651188743228629
leaf_weight=510.98968344181776 252.15099164843559 29.064178466796875 396.12996625900269
leaf_count=4793 242 13 178
internal_value=-0.000316224 0.0201072 0.0482841
internal_weight=1188.33 677.345 425.194
internal_count=5226 433 191
is_linear=0
shrinkage=0.03


Tree=48
num_leaves=63
num_cat=0
split_feature=17 15 8 16 16 3 22 1 8 3 27 0 3 1 9 23 9 9 3 11 9 3 26 0 0 26 25 21 25 23 1 14 23 3 3 16 3 26 3 26 5 5 16 27 25 9 6 8 0 8 22 1 14 16 0 8 1 3 3 3 1 1
split_gain=667.318 111.205 28.2477 28.5567 33.403 11.8682 8.42051 7.45789 7.27436 7.24143 7.23762 10.1644 6.68708 6.67734 10.4088 6.23211 14.3251 6.74884 9.35655 5.50443 5.86322 6.47762 6.74832 5.26843 4.92273 4.5685 4.07194 4.75691 3.96165 6.56949 4.27849 9.775 5.42259 3.91093 3.81843 6.21616 6.08326 3.70161 5.88469 3.45068 7.61373 7.88312 6.00681 8.1941 3.47258 2.86299 2.86259 2.7902 2.78893 2.38969 1.95782 1.86059 1.66801 1.49036 1.43226 1.34938 1.76182 1.25894 3.56178 1.20213 1.1701 1.55108
threshold=1.0000000180025095e-35 1.0000000180025095e-35 9.5000000000000018 13.500000000000002 10.500000000000002 560005.50000000012 10.912516666666667 77.57670262500001 4.5000000000000009 560057.50000000012 3.5000000000000004 13.008045900000001 560020.50000000012 77.586794850000004 47.500000000000007 112.62235296666668 56.500000000000007 47.500000000000007 560048.50000000012 1.0000000180025095e-35 347.50000000000006 560072.50000000012 32.500000000000007 12.945920000000003 13.010134050000003 15.500000000000002 4.5000000000000009 1.0000000180025095e-35 1.5000000000000002 33.294691833333339 77.499562400000016 2.5000000000000004 1438.5265494000002 560077.50000000012 560077.50000000012 7.5000000000000009 560095.50000000012 27.500000000000004 560055.50000000012 19.500000000000004 11.500000000000002 20.500000000000004 13.500000000000002 2.5000000000000004 1.5000000000000002 43.500000000000007 2.5000000000000004 5.5000000000000009 13.044520750000002 15.500000000000002 585.53727500000014 77.74989029000001 4.5000000000000009 5.0000000000000009 12.918685310000003 28.500000000000004 77.57219065000001 560057.50000000012 560031.00000000012 560060.50000000012 77.580071900000021 77.597271700000007
decision_type=2 2 2 2 2 2 2 2 2 2 2 2 2 2 2 2 2 2 2 2 2 2 2 2 2 2 2 2 2 2 2 2 2 2 2 2 2 2 2 2 2 2 2 2 2 2 2 2 2 2 2 2 2 2 2 2 2 2 2 2 2 2
left_child=1 6 3 4 7 13 52 12 -6 60 11 46 -3 14 -4 19 17 18 -17 25 55 22 -22 -8 -18 45 27 -15 29 37 31 -30 51 59 39 -36 -37 38 -12 -27 54 42 -42 -44 -45 -7 -5 -39 -26 -38 -25 -32 -1 -9 -41 -21 -57 58 -43 -14 -10 -62
right_child=-2 2 5 10 8 15 23 53 9 -11 28 -13 33 26 -16 16 24 -19 -20 20 21 -23 -24 50 48 34 -28 -29 30 -31 32 -33 -34 -35 35 36 49 47 -40 40 41 57 43 44 -46 -47 -48 -49 -50 -51 -52 -53 -54 -55 -56 56 -58 -59 -60 -61 61 -63
leaf_value=-0.011297326952847001 -0.026855582104674522 -0.011477999488826489 -0.00019355724075753903 0.011330293928187055 0.014524420620312868 0.022642523667210184 0.022128889653408743 0.026842441174766942 -0.024954544302638566 0.004801597959753154 -0.0083798644773431085 -0.010494707296284093 0.020614631220030315 0.03358692840989521 0.046379319051946186 -0.0091107998319658323 0.04260884754797524 -0.016913068531254884 0.036847221253526415 0.041901345009345163 0.002680837114001103 0.045092839819234287 0.035941162767236766 0.0017625902970950277 0.0015395829386810767 0.011379957920435863 -0.0070665047521999485 -0.0010754757384166234 -0.0088603095510933101 0.045866864321058319 0.045715112031475096 0.044745485640933474 0.015268645435222791 0.0034943340357533582 0.044953909471164198 -0.0072519501058758359 0.0088663236676522466 0.014724436530858602 0.029872419137539866 0.025293370373450075 -0.0059817054175290993 0.045068786056393348 -0.005080683625022629 0.014687548006308821 0.045996744499374513 0.045565948554387337 0.037130597999715888 0.044886503081936681 0.031179462335407054 0.034399352301082133 -0.016798815166546952 0.020554800115731221 -0.024493322689204761 0.045023386502893566 0.046062898438614969 0.016174187374887423 0.042471631138528046 0.045828450996376821 0.0067663312206627567 0.045155905678805286 -0.0058408561675057638 -0.021898578952418597
leaf_weight=12.585240781307219 482.50672797113657 7.0531379878520992 6.936108052730563 7.3745740056037965 9.8180718272924405 7.7575510740280178 6.7001844346523312 8.9248311817646044 19.965979039669037 14.715190395712851 10.598211765289308 11.125015139579771 3.9934875071048719 6.7928301393985748 10.810853585600851 7.2453747987747219 21.487605288624763 8.9317269176244718 8.4645770192146284 87.48741140961647 13.748111322522165 10.588482171297072 9.3078490048646909 8.906427800655365 5.5263376832008344 10.022076949477194 13.677188217639923 7.0307682603597641 6.034196272492407 7.6220491826534262 33.415845409035683 5.9092047065496445 7.9957868456840506 5.8325876146554938 5.4144785404205349 10.853427305817604 6.8588918149471283 8.0317674130201322 5.3320034742355338 4.6776587516069439 9.4081990867853182 5.1669818758964556 6.5300208777189264 5.5142447054386148 9.3461507111787778 19.939260721206665 9.5210002958774549 4.6720590591430655 6.3851821571588516 7.2669365853071213 11.078477144241333 3.6241668313741675 39.685616075992584 11.948186114430426 24.847658082842827 5.6851781606674177 4.8175563812255859 10.757877632975577 4.1594051122665405 5.4135838896036148 11.117801010608675 12.017082855105398
leaf_count=20 3210 11 14 19 26 24 20 29 21 33 18 18 13 24 44 12 84 12 31 341 30 43 34 19 12 26 24 14 10 31 136 24 22 13 22 19 17 22 18 15 17 21 12 15 38 81 35 19 22 26 15 11 43 49 101 16 20 44 10 22 20 14
internal_value=0.000239172 0.01907 0.0233714 0.0150718 0.00402405 0.0283812 -0.0144103 0.024631 -0.00910051 -0.0131823 0.0251305 0.0115261 0.01228 0.0137859 0.0281099 0.0303204 0.0211486 0.00363372 0.0155382 0.0322016 0.0367761 0.0255813 0.016335 -0.000576067 0.0339319 0.028105 0.00436522 0.0158608 0.0291703 0.0210897 0.0342134 0.0175643 0.0385136 0.0234743 0.0254702 0.0159568 0.00939756 0.0142533 0.00434289 0.0286134 0.0307073 0.0234625 0.0137026 0.0224875 0.0347552 0.0393578 0.0261787 0.0263153 0.0178051 0.022362 -0.00840982 0.0433961 -0.021401 0.0375577 0.0429702 0.0405592 0.0288065 0.0381385 0.0285578 0.0353796 -0.0193886 -0.0143693
internal_weight=1176.96 694.456 615.5 232.056 110.8 383.444 78.9559 43.1658 67.6341 57.8161 121.256 28.0206 22.2928 45.2477 17.747 338.196 58.0408 24.6417 15.71 280.155 131.635 33.6444 23.056 26.6851 33.3991 148.521 27.5008 13.8236 93.2353 36.2561 56.9792 11.9434 45.0358 15.2397 120.824 30.3937 24.9793 28.634 15.9302 90.4303 80.4082 50.8829 30.7986 21.3904 14.8604 27.6968 16.8956 12.7038 11.9115 14.1258 19.9849 37.04 52.2709 20.873 29.5253 97.9901 10.5027 20.0843 9.32639 9.40707 43.1009 23.1349
internal_count=5226 2016 1899 634 251 1265 117 137 114 88 383 72 59 120 58 1145 173 55 43 972 484 107 64 54 118 488 62 38 311 108 203 34 169 48 383 84 62 77 36 299 273 157 82 65 53 105 54 41 34 43 34 147 63 78 116 377 36 75 31 35 55 34
is_linear=0
shrinkage=0.03


Tree=49
num_leaves=63
num_cat=0
split_feature=17 25 16 0 16 22 14 6 9 0 0 2 9 26 28 18 0 18 2 3 28 0 5 5 6 26 6 0 6 8 6 0 28 22 26 3 14 0 3 9 27 3 0 9 9 27 7 26 0 26 18 0 3 3 28 9 3 3 6 3 6 0
split_gain=671.936 69.8684 33.3787 36.9204 22.288 16.6533 16.7354 14.3575 12.7328 12.4286 11.416 11.6762 13.4492 16.7438 10.8531 9.16347 8.12063 8.00737 13.5666 15.0858 7.06981 9.84296 9.22204 6.81861 6.66185 6.44101 7.01696 6.21404 6.15902 6.39488 6.07588 11.9759 6.06189 7.02093 5.16743 4.83304 4.26894 4.23293 4.70542 4.48821 4.03515 3.93554 3.68052 3.43149 8.14302 3.37577 3.03972 2.82883 10.4941 5.63554 2.71773 2.49654 3.14959 2.44254 2.3532 2.26432 1.9333 5.1136 1.48967 0.803908 0.707291 0.598356
threshold=1.0000000180025095e-35 4.5000000000000009 7.5000000000000009 12.946882700000002 15.500000000000002 1.0000000180025095e-35 5.5000000000000009 3.5000000000000004 19.500000000000004 12.940196595000002 12.978307850000002 7.5000000000000009 65.500000000000014 26.500000000000004 293.50000000000006 1.0000000180025095e-35 13.18314765 1.0000000180025095e-35 18.500000000000004 560020.50000000012 155.50000000000003 12.972057950000002 2.5000000000000004 2.5000000000000004 5.5000000000000009 51.500000000000007 4.5000000000000009 13.019919550000003 4.5000000000000009 11.500000000000002 3.5000000000000004 12.961420800000001 278.50000000000006 1296.9499083333337 10.500000000000002 560057.50000000012 1.5000000000000002 13.010134050000003 560005.50000000012 358.50000000000006 1.5000000000000002 560073.50000000012 13.008045900000001 75.500000000000014 55.500000000000007 4.5000000000000009 11.500000000000002 50.500000000000007 12.975631400000003 19.500000000000004 1.0000000180025095e-35 13.021791450000002 562159.50000000012 560029.50000000012 123.50000000000001 93.500000000000014 560055.50000000012 560077.50000000012 2.5000000000000004 560040.50000000012 4.5000000000000009 13.020602200000001
decision_type=2 2 2 2 2 2 2 2 2 2 2 2 2 2 2 2 2 2 2 2 2 2 2 2 2 2 2 2 2 2 2 2 2 2 2 2 2 2 2 2 2 2 2 2 2 2 2 2 2 2 2 2 2 2 2 2 2 2 2 2 2 2
left_child=1 8 3 15 35 6 17 47 27 43 20 23 16 -14 -2 -3 -13 -5 19 36 54 22 -22 -12 32 26 -21 40 37 -30 31 -24 33 -17 -25 58 -19 38 -15 -40 -1 46 -43 44 -10 -29 -37 48 -6 -50 -32 -39 -53 -52 -11 -44 -42 -58 59 -4 -60 -28
right_child=14 2 4 5 7 -7 -8 -9 9 10 11 12 13 28 -16 24 -18 18 -20 25 21 -23 30 34 -26 -27 61 45 29 -31 50 -33 -34 -35 -36 41 -38 51 39 -41 56 42 55 -45 -46 -47 -48 -49 49 -51 53 52 -54 -55 -56 -57 57 -59 60 -61 -62 -63
leaf_value=0.0057799429772494625 -0.027130523818985404 0.022331988018157167 0.024611114228575589 0.031275674397256405 -0.026020254038350725 0.041647289500630472 0.044045667856923355 -0.026567761114312142 -0.026374359701497253 0.019724149539429602 0.011073300793588575 -0.027033721565926927 -0.026475783549824126 0.030266819261041175 0.033369846670485891 -0.027205538958779071 0.032660210376149877 0.039149794944980505 0.031685710013489528 -0.027110927742047975 -0.026057826125808127 -0.026351008879566363 -0.026554909818453976 0.011989530610840007 0.014908141760009921 0.01617326090023408 -0.00022347296086916909 0.017384672162055571 0.01962859387935861 -0.026225436504206643 0.044542708083224768 0.025370082900625784 0.026448087567656684 0.022531602832447432 -0.026960078718140535 -0.0025982566685970546 0.0073526687749918586 0.036687816841594618 -0.026102458069077808 0.02186554282040391 0.036526795794925175 0.040462032325046436 0.0022025230820627152 -0.026851226435973298 0.022348089043490681 -0.025672825724410379 0.030082631306898828 0.040153901022613604 0.041333557802553017 0.0067975996588827336 0.032158785871515327 0.0054223886008382596 0.030163953054135152 0.008252976426795091 0.04258941965956424 0.02840354344116016 -0.001755007760108175 0.034947075505423079 0.043113425697338156 0.038764468472007547 0.035635400668415966 0.015826522276163709
